{"learner":{"attributes":{"scikit_learn":"{\"_estimator_type\": \"regressor\"}"},"feature_names":["Crypto","Open","High","Low"],"feature_types":["int","float","float","float"],"gradient_booster":{"model":{"gbtree_model_param":{"num_parallel_tree":"1","num_trees":"200"},"iteration_indptr":[0,1,2,3,4,5,6,7,8,9,10,11,12,13,14,15,16,17,18,19,20,21,22,23,24,25,26,27,28,29,30,31,32,33,34,35,36,37,38,39,40,41,42,43,44,45,46,47,48,49,50,51,52,53,54,55,56,57,58,59,60,61,62,63,64,65,66,67,68,69,70,71,72,73,74,75,76,77,78,79,80,81,82,83,84,85,86,87,88,89,90,91,92,93,94,95,96,97,98,99,100,101,102,103,104,105,106,107,108,109,110,111,112,113,114,115,116,117,118,119,120,121,122,123,124,125,126,127,128,129,130,131,132,133,134,135,136,137,138,139,140,141,142,143,144,145,146,147,148,149,150,151,152,153,154,155,156,157,158,159,160,161,162,163,164,165,166,167,168,169,170,171,172,173,174,175,176,177,178,179,180,181,182,183,184,185,186,187,188,189,190,191,192,193,194,195,196,197,198,199,200],"tree_info":[0,0,0,0,0,0,0,0,0,0,0,0,0,0,0,0,0,0,0,0,0,0,0,0,0,0,0,0,0,0,0,0,0,0,0,0,0,0,0,0,0,0,0,0,0,0,0,0,0,0,0,0,0,0,0,0,0,0,0,0,0,0,0,0,0,0,0,0,0,0,0,0,0,0,0,0,0,0,0,0,0,0,0,0,0,0,0,0,0,0,0,0,0,0,0,0,0,0,0,0,0,0,0,0,0,0,0,0,0,0,0,0,0,0,0,0,0,0,0,0,0,0,0,0,0,0,0,0,0,0,0,0,0,0,0,0,0,0,0,0,0,0,0,0,0,0,0,0,0,0,0,0,0,0,0,0,0,0,0,0,0,0,0,0,0,0,0,0,0,0,0,0,0,0,0,0,0,0,0,0,0,0,0,0,0,0,0,0,0,0,0,0,0,0,0,0,0,0,0,0],"trees":[{"base_weights":[3.224047E-4,-4.257688E3,3.1964182E4,-6.1291255E3,3.7246536E3,2.2889156E4,4.3693656E4,-6.608357E3,-3.8690686E3,1.8128557E3,1.0892196E4,1.837238E4,2.9195314E4,3.873593E4,5.1137593E3,-6.7096136E2,-5.589812E2,-4.7356704E3,-2.9971E3,2.9107748E2,3.156154E3,8.911135E3,1.2401986E3,1.5520681E3,2.1098914E3,2.5248867E3,3.054033E3,3.494352E3,4.0717341E3,-4.966174E2,-4.177277E2,-3.2384949E3,-1.9317372E3,-3.395381E2,9.1072363E2,2.3757998E3,4.117627E3,6.655292E2,9.574346E2,-3.5134863E2,-2.8895963E2,-2.1879553E2,-1.4659375E2,-5.1751137E1,-4.5507736E0,5.434328E1,1.2837128E2,2.0177843E2,2.7119446E2,3.592295E2,4.6066733E2],"categories":[],"categories_nodes":[],"categories_segments":[],"categories_sizes":[],"default_left":[0,0,0,0,0,0,0,0,0,0,0,0,0,0,0,0,0,0,0,0,0,0,0,0,0,0,0,0,0,0,0,0,0,0,0,0,0,0,0,0,0,0,0,0,0,0,0,0,0,0,0],"id":0,"left_children":[1,3,5,7,9,11,13,15,17,19,21,23,25,27,-1,-1,-1,29,31,33,35,37,-1,-1,-1,-1,-1,-1,-1,-1,-1,39,41,43,45,47,49,-1,-1,-1,-1,-1,-1,-1,-1,-1,-1,-1,-1,-1,-1],"loss_changes":[8.6024716E11,8.33495E10,7.80887E10,4.868915E9,1.450532E10,1.1455185E10,9.939452E9,3.4688205E8,5.850378E8,1.7121224E9,5.564764E8,1.6007905E9,1.5248589E8,6.501171E7,0E0,0E0,0E0,3.0224384E7,9.609882E7,1.5426806E8,3.240965E8,8.588954E7,0E0,0E0,0E0,0E0,0E0,0E0,0E0,0E0,0E0,2.0837376E7,5.862912E6,1.023304E7,2.6564496E7,2.4373504E7,3.431987E7,0E0,0E0,0E0,0E0,0E0,0E0,0E0,0E0,0E0,0E0,0E0,0E0,0E0,0E0],"parents":[2147483647,0,0,1,1,2,2,3,3,4,4,5,5,6,6,7,7,8,8,9,9,10,10,11,11,12,12,13,13,17,17,18,18,19,19,20,20,21,21,31,31,32,32,33,33,34,34,35,35,36,36],"right_children":[2,4,6,8,10,12,14,16,18,20,22,24,26,28,-1,-1,-1,30,32,34,36,38,-1,-1,-1,-1,-1,-1,-1,-1,-1,40,42,44,46,48,50,-1,-1,-1,-1,-1,-1,-1,-1,-1,-1,-1,-1,-1,-1],"split_conditions":[2.1179E4,5.88E3,3.9337E4,1.56032E3,1.2706E4,3.1735E4,5.4363E4,7.4037E2,2.85513E3,8.701E3,1.6952E4,2.3912E4,3.5496E4,4.5816E4,5.1137593E3,-6.7096136E2,-5.589812E2,2.42917E3,4.116E3,6.872E3,1.0351E4,1.4225E4,1.2401986E3,1.5520681E3,2.1098914E3,2.5248867E3,3.054033E3,3.494352E3,4.0717341E3,-4.966174E2,-4.177277E2,3.77601E3,5.016E3,6.452E3,8.087E3,9.076E3,1.0609E4,6.655292E2,9.574346E2,-3.5134863E2,-2.8895963E2,-2.1879553E2,-1.4659375E2,-5.1751137E1,-4.5507736E0,5.434328E1,1.2837128E2,2.0177843E2,2.7119446E2,3.592295E2,4.6066733E2],"split_indices":[2,2,3,3,3,2,2,2,3,2,3,3,2,2,0,0,0,2,3,3,2,3,0,0,0,0,0,0,0,0,0,2,3,3,2,3,3,0,0,0,0,0,0,0,0,0,0,0,0,0,0],"split_type":[0,0,0,0,0,0,0,0,0,0,0,0,0,0,0,0,0,0,0,0,0,0,0,0,0,0,0,0,0,0,0,0,0,0,0,0,0,0,0,0,0,0,0,0,0,0,0,0,0,0,0],"sum_hessian":[6.319E3,5.577E3,7.42E2,4.518E3,1.059E3,4.2E2,3.22E2,3.726E3,7.92E2,8.37E2,2.22E2,2.47E2,1.73E2,1.97E2,1.25E2,3.384E3,3.42E2,3.95E2,3.97E2,3.93E2,4.44E2,9.9E1,1.23E2,1.24E2,1.23E2,4.9E1,1.24E2,7.4E1,1.23E2,2.74E2,1.21E2,3.22E2,7.5E1,1.95E2,1.98E2,2.47E2,1.97E2,2.5E1,7.4E1,1.75E2,1.47E2,4.6E1,2.9E1,1.21E2,7.4E1,1.01E2,9.7E1,1.23E2,1.24E2,9.9E1,9.8E1],"tree_param":{"num_deleted":"0","num_feature":"4","num_nodes":"51","size_leaf_vector":"1"}},{"base_weights":[3.6478682E0,-3.7583909E3,2.9361168E4,-5.51697E3,3.5695146E3,2.1125459E4,3.9367297E4,-5.972594E3,-3.59089E3,1.633589E3,1.0096677E4,1.6992504E4,2.630088E4,3.4882836E4,4.610187E3,-6.049811E2,-5.2098047E2,-4.3371533E3,-2.7006018E3,3.3739108E2,2.9166702E3,8.0261553E3,1.1418525E3,1.4819823E3,1.9516703E3,2.3606396E3,2.8058738E3,3.1511912E3,3.6640388E3,-4.5584122E2,-3.8298874E2,-2.9144373E3,-1.7408241E3,-1.7369244E2,1.0621838E3,2.2805337E3,3.8154058E3,6.0101324E2,8.6180273E2,-3.215485E2,-2.643014E2,-1.9546295E2,-1.3121281E2,-3.7328243E1,2.8634974E1,7.3967285E1,1.3072475E2,1.9413306E2,2.6122272E2,3.303344E2,4.1647922E2],"categories":[],"categories_nodes":[],"categories_segments":[],"categories_sizes":[],"default_left":[0,0,0,0,0,0,0,0,0,0,0,0,0,0,0,0,0,0,0,0,0,0,0,0,0,0,0,0,0,0,0,0,0,0,0,0,0,0,0,0,0,0,0,0,0,0,0,0,0,0,0],"id":1,"left_children":[1,3,5,7,9,11,13,15,17,19,21,23,25,27,-1,-1,-1,29,31,33,35,37,-1,-1,-1,-1,-1,-1,-1,-1,-1,39,41,43,45,47,49,-1,-1,-1,-1,-1,-1,-1,-1,-1,-1,-1,-1,-1,-1],"loss_changes":[6.981173E11,7.222388E10,5.8337E10,3.9442842E9,1.3693676E10,8.023425E9,8.1467146E9,1.8364826E8,5.6431206E8,1.3927163E9,5.8710835E8,9.33761E8,1.617838E8,1.8464768E7,0E0,0E0,0E0,3.5293184E7,7.661005E7,1.550241E8,2.3199232E8,6.752768E7,0E0,0E0,0E0,0E0,0E0,0E0,0E0,0E0,0E0,1.7975808E7,4.3096E6,2.2694562E7,1.2706224E7,2.2944256E7,1.7193216E7,0E0,0E0,0E0,0E0,0E0,0E0,0E0,0E0,0E0,0E0,0E0,0E0,0E0,0E0],"parents":[2147483647,0,0,1,1,2,2,3,3,4,4,5,5,6,6,7,7,8,8,9,9,10,10,11,11,12,12,13,13,17,17,18,18,19,19,20,20,21,21,31,31,32,32,33,33,34,34,35,35,36,36],"right_children":[2,4,6,8,10,12,14,16,18,20,22,24,26,28,-1,-1,-1,30,32,34,36,38,-1,-1,-1,-1,-1,-1,-1,-1,-1,40,42,44,46,48,50,-1,-1,-1,-1,-1,-1,-1,-1,-1,-1,-1,-1,-1,-1],"split_conditions":[2.0834E4,5.406E3,4.1514E4,1.559E3,1.2706E4,3.1735E4,5.0487E4,5.4364E2,2.85513E3,8.409E3,1.7837E4,2.6587E4,3.7236E4,4.5816E4,4.610187E3,-6.049811E2,-5.2098047E2,2.19468E3,4.414E3,7.235E3,1.0476E4,1.5395E4,1.1418525E3,1.4819823E3,1.9516703E3,2.3606396E3,2.8058738E3,3.1511912E3,3.6640388E3,-4.5584122E2,-3.8298874E2,3.475E3,5.016E3,7.125E3,8.199E3,9.54E3,1.129E4,6.0101324E2,8.6180273E2,-3.215485E2,-2.643014E2,-1.9546295E2,-1.3121281E2,-3.7328243E1,2.8634974E1,7.3967285E1,1.3072475E2,1.9413306E2,2.6122272E2,3.303344E2,4.1647922E2],"split_indices":[3,3,2,2,3,2,3,3,3,3,2,3,2,2,0,0,0,2,2,3,2,2,0,0,0,0,0,0,0,0,0,3,3,2,2,2,2,0,0,0,0,0,0,0,0,0,0,0,0,0,0],"split_type":[0,0,0,0,0,0,0,0,0,0,0,0,0,0,0,0,0,0,0,0,0,0,0,0,0,0,0,0,0,0,0,0,0,0,0,0,0,0,0,0,0,0,0,0,0,0,0,0,0,0,0],"sum_hessian":[6.319E3,5.602E3,7.17E2,4.518E3,1.084E3,3.95E2,3.22E2,3.652E3,8.66E2,8.37E2,2.47E2,2.22E2,1.73E2,1.97E2,1.25E2,3.31E3,3.42E2,4.69E2,3.97E2,4.17E2,4.2E2,9.9E1,1.48E2,1.23E2,9.9E1,7.4E1,9.9E1,7.4E1,1.23E2,3.21E2,1.48E2,3.23E2,7.4E1,2.45E2,1.72E2,2.48E2,1.72E2,2.5E1,7.4E1,1.48E2,1.75E2,4.7E1,2.7E1,1.71E2,7.4E1,7.6E1,9.6E1,1.26E2,1.22E2,7.4E1,9.8E1],"tree_param":{"num_deleted":"0","num_feature":"4","num_nodes":"51","size_leaf_vector":"1"}},{"base_weights":[6.629703E0,-3.4489126E3,2.5948768E4,-4.9659404E3,3.0217454E3,1.7500658E4,3.428201E4,-5.33849E3,-3.0592842E3,1.4720629E3,8.831665E3,1.3990638E4,2.1437037E4,2.987017E4,4.0570476E3,-5.4329175E3,-4.4564413E2,-3.6930864E3,-2.3368096E3,3.026958E2,2.6296006E3,7.231461E3,1.00509296E3,1.2576036E3,1.6161765E3,1.8866698E3,2.316773E3,2.7078408E3,3.1880703E3,-5.47142E2,-5.12874E2,-3.9446436E2,-3.2546667E2,-2.499949E3,-1.3785228E2,-1.557991E2,9.5291E2,1.9833529E3,3.3474282E3,5.427432E2,7.760438E2,-2.7231805E2,-2.2568091E2,-3.8902508E1,1.82882E1,6.666662E1,1.1703107E2,1.6074065E2,2.1544568E2,2.9129135E2,3.7525198E2],"categories":[],"categories_nodes":[],"categories_segments":[],"categories_sizes":[],"default_left":[0,0,0,0,0,0,0,0,0,0,0,0,0,0,0,0,0,0,0,0,0,0,0,0,0,0,0,0,0,0,0,0,0,0,0,0,0,0,0,0,0,0,0,0,0,0,0,0,0,0,0],"id":2,"left_children":[1,3,5,7,9,11,13,15,17,19,21,23,25,27,-1,29,-1,31,33,35,37,39,-1,-1,-1,-1,-1,-1,-1,-1,-1,-1,-1,41,-1,43,45,47,49,-1,-1,-1,-1,-1,-1,-1,-1,-1,-1,-1,-1],"loss_changes":[5.666406E11,5.4769586E10,5.1707347E10,3.1936266E9,9.530742E9,4.826104E9,9.136538E9,2.9054566E8,3.3067827E8,1.1335094E9,3.624059E8,4.0793293E8,3.324887E8,3.884155E8,0E0,1.1862016E7,0E0,3.050496E7,5.111437E7,1.24762584E8,1.8866048E8,5.330944E7,0E0,0E0,0E0,0E0,0E0,0E0,0E0,0E0,0E0,0E0,0E0,9.9744E6,0E0,1.9502496E7,9.985504E6,1.0945856E7,2.392064E7,0E0,0E0,0E0,0E0,0E0,0E0,0E0,0E0,0E0,0E0,0E0,0E0],"parents":[2147483647,0,0,1,1,2,2,3,3,4,4,5,5,6,6,7,7,8,8,9,9,10,10,11,11,12,12,13,13,15,15,17,17,18,18,19,19,20,20,21,21,33,33,35,35,36,36,37,37,38,38],"right_children":[2,4,6,8,10,12,14,16,18,20,22,24,26,28,-1,30,-1,32,34,36,38,40,-1,-1,-1,-1,-1,-1,-1,-1,-1,-1,-1,42,-1,44,46,48,50,-1,-1,-1,-1,-1,-1,-1,-1,-1,-1,-1,-1],"split_conditions":[2.0257E4,5.88E3,3.7249E4,1.75182E3,1.2706E4,2.8068E4,4.8075E4,8.5899E2,3.05701E3,8.856E3,1.6952E4,2.432E4,3.3667E4,4.3988E4,4.0570476E3,2.6201E2,-4.4564413E2,2.56282E3,4.66502E3,7.235E3,1.0351E4,1.4225E4,1.00509296E3,1.2576036E3,1.6161765E3,1.8866698E3,2.316773E3,2.7078408E3,3.1880703E3,-5.47142E2,-5.12874E2,-3.9446436E2,-3.2546667E2,3.88171E3,-1.3785228E2,6.559E3,8.199E3,8.937E3,1.129E4,5.427432E2,7.760438E2,-2.7231805E2,-2.2568091E2,-3.8902508E1,1.82882E1,6.666662E1,1.1703107E2,1.6074065E2,2.1544568E2,2.9129135E2,3.7525198E2],"split_indices":[3,2,3,2,3,3,3,2,3,2,3,1,2,2,0,3,0,2,2,3,2,3,0,0,0,0,0,0,0,0,0,0,0,2,0,3,2,3,2,0,0,0,0,0,0,0,0,0,0,0,0],"split_type":[0,0,0,0,0,0,0,0,0,0,0,0,0,0,0,0,0,0,0,0,0,0,0,0,0,0,0,0,0,0,0,0,0,0,0,0,0,0,0,0,0,0,0,0,0,0,0,0,0,0,0],"sum_hessian":[6.319E3,5.577E3,7.42E2,4.518E3,1.059E3,3.7E2,3.72E2,3.778E3,7.4E2,8.37E2,2.22E2,1.98E2,1.72E2,2.22E2,1.5E2,3.408E3,3.7E2,3.92E2,3.48E2,4.17E2,4.2E2,9.9E1,1.23E2,1.24E2,7.4E1,7.4E1,9.8E1,9.9E1,1.23E2,3.01E3,3.98E2,2.44E2,1.48E2,2.96E2,5.2E1,2.45E2,1.72E2,2.23E2,1.97E2,2.5E1,7.4E1,1.49E2,1.47E2,1.45E2,1E2,7.6E1,9.6E1,7.3E1,1.5E2,9.9E1,9.8E1],"tree_param":{"num_deleted":"0","num_feature":"4","num_nodes":"51","size_leaf_vector":"1"}},{"base_weights":[8.767088E0,-3.0446738E3,2.383665E4,-4.4700146E3,2.8946448E3,1.714526E4,3.196654E4,-4.839285E3,-2.9089822E3,1.3264855E3,8.1818345E3,1.3804072E4,2.132882E4,2.8264004E4,3.7531106E3,-4.906582E2,-4.268564E2,-3.549015E3,-2.2287847E3,2.7317392E2,2.3691404E3,6.811284E3,9.4974554E2,1.1613105E3,1.5459657E3,1.9116844E3,2.2774514E3,2.611103E3,3.011281E3,-3.711324E2,-3.2016678E2,-2.4708604E3,-1.6451212E3,-1.9687431E2,7.914525E2,1.783092E3,3.0201792E3,4.901393E2,7.239743E2,-2.6821127E2,-2.2430254E2,-1.9050371E2,-1.2462758E2,-3.5379364E1,9.914201E0,4.4706554E1,1.00060974E2,1.5701189E2,2.0408934E2,2.705338E2,3.5004474E2],"categories":[],"categories_nodes":[],"categories_segments":[],"categories_sizes":[],"default_left":[0,0,0,0,0,0,0,0,0,0,0,0,0,0,0,0,0,0,0,0,0,0,0,0,0,0,0,0,0,0,0,0,0,0,0,0,0,0,0,0,0,0,0,0,0,0,0,0,0,0,0],"id":3,"left_children":[1,3,5,7,9,11,13,15,17,19,21,23,25,27,-1,-1,-1,29,31,33,35,37,-1,-1,-1,-1,-1,-1,-1,-1,-1,39,41,43,45,47,49,-1,-1,-1,-1,-1,-1,-1,-1,-1,-1,-1,-1,-1,-1],"loss_changes":[4.5989698E11,4.744544E10,3.8511346E10,2.5908675E9,8.985053E9,5.2408893E9,5.593989E9,1.1935744E8,3.6953702E8,9.1967834E8,3.8248448E8,6.293627E8,1.2104499E8,1.835008E6,0E0,0E0,0E0,1.3205504E7,5.570099E7,1.0198728E8,1.55243E8,6.680371E7,0E0,0E0,0E0,0E0,0E0,0E0,0E0,0E0,0E0,8.278912E6,1.0791424E7,1.0254227E7,1.388684E7,9.094272E6,2.0469248E7,0E0,0E0,0E0,0E0,0E0,0E0,0E0,0E0,0E0,0E0,0E0,0E0,0E0,0E0],"parents":[2147483647,0,0,1,1,2,2,3,3,4,4,5,5,6,6,7,7,8,8,9,9,10,10,11,11,12,12,13,13,17,17,18,18,19,19,20,20,21,21,31,31,32,32,33,33,34,34,35,35,36,36],"right_children":[2,4,6,8,10,12,14,16,18,20,22,24,26,28,-1,-1,-1,30,32,34,36,38,-1,-1,-1,-1,-1,-1,-1,-1,-1,40,42,44,46,48,50,-1,-1,-1,-1,-1,-1,-1,-1,-1,-1,-1,-1,-1,-1],"split_conditions":[2.1795E4,5.406E3,3.9337E4,1.4283E3,1.2706E4,3.1735E4,5.4363E4,4.8826E2,2.74067E3,8.409E3,1.9227E4,2.3912E4,3.4163E4,4.7357E4,3.7531106E3,-4.906582E2,-4.268564E2,1.94199E3,3.904E3,7.43E3,9.719E3,1.5395E4,9.4974554E2,1.1613105E3,1.5459657E3,1.9116844E3,2.2774514E3,2.611103E3,3.011281E3,-3.711324E2,-3.2016678E2,3.55E3,4.66502E3,6.559E3,8.087E3,9.54E3,1.0868E4,4.901393E2,7.239743E2,-2.6821127E2,-2.2430254E2,-1.9050371E2,-1.2462758E2,-3.5379364E1,9.914201E0,4.4706554E1,1.00060974E2,1.5701189E2,2.0408934E2,2.705338E2,3.5004474E2],"split_indices":[2,3,3,3,3,2,2,2,3,3,2,3,3,2,0,0,0,3,3,2,3,2,0,0,0,0,0,0,0,0,0,2,2,3,2,2,3,0,0,0,0,0,0,0,0,0,0,0,0,0,0],"split_type":[0,0,0,0,0,0,0,0,0,0,0,0,0,0,0,0,0,0,0,0,0,0,0,0,0,0,0,0,0,0,0,0,0,0,0,0,0,0,0,0,0,0,0,0,0,0,0,0,0,0,0],"sum_hessian":[6.319E3,5.602E3,7.17E2,4.518E3,1.084E3,3.95E2,3.22E2,3.652E3,8.66E2,8.37E2,2.47E2,2.22E2,1.73E2,1.97E2,1.25E2,3.26E3,3.92E2,4.44E2,4.22E2,4.17E2,4.2E2,1.24E2,1.23E2,9.9E1,1.23E2,7.4E1,9.9E1,9.8E1,9.9E1,2.96E2,1.48E2,2.96E2,1.26E2,2.19E2,1.98E2,2.23E2,1.97E2,2.5E1,9.9E1,1.48E2,1.48E2,7.4E1,5.2E1,1.43E2,7.6E1,7.6E1,1.22E2,1.26E2,9.7E1,1.23E2,7.4E1],"tree_param":{"num_deleted":"0","num_feature":"4","num_nodes":"51","size_leaf_vector":"1"}},{"base_weights":[1.0599341E1,-2.8451697E3,2.068978E4,-4.023572E3,2.2977305E3,1.3889685E4,2.7835484E4,-4.3610293E3,-2.6407473E3,1.1952803E3,6.9286626E3,1.1091359E4,1.7416486E4,2.4688037E4,3.3809539E3,-4.4227798E2,-3.9089846E3,-3.20882E3,-2.0073412E3,2.4410873E2,2.1368347E3,5.1090396E2,7.504986E3,9.742214E2,1.2653387E3,1.5349423E3,1.877195E3,2.245777E3,2.6737195E3,-4.0660666E2,-3.638509E2,-3.333704E2,-2.8404688E2,-2.161933E3,-1.2730607E3,-1.799313E2,7.1167004E2,1.7191207E3,2.887835E3,6.750009E2,8.159896E2,-2.3814952E2,-1.931272E2,-1.4445401E2,-9.6197426E1,-3.5407146E1,3.6483095E0,4.0861004E1,8.995963E1,1.4924101E2,2.090426E2,2.582096E2,3.1550696E2],"categories":[],"categories_nodes":[],"categories_segments":[],"categories_sizes":[],"default_left":[0,0,0,0,0,0,0,0,0,0,0,0,0,0,0,0,0,0,0,0,0,0,0,0,0,0,0,0,0,0,0,0,0,0,0,0,0,0,0,0,0,0,0,0,0,0,0,0,0,0,0,0,0],"id":4,"left_children":[1,3,5,7,9,11,13,15,17,19,21,23,25,27,-1,-1,29,31,33,35,37,-1,39,-1,-1,-1,-1,-1,-1,-1,-1,-1,-1,41,43,45,47,49,51,-1,-1,-1,-1,-1,-1,-1,-1,-1,-1,-1,-1,-1,-1],"loss_changes":[3.7328624E11,3.3668735E10,3.6883005E10,2.0972421E9,5.2808837E9,3.705127E9,6.1788324E9,8.40745E7,3.1343974E8,7.499743E8,1.703465E8,3.4667725E8,1.9658342E8,5.3293875E8,0E0,0E0,4.112384E6,1.2013056E7,4.526413E7,8.30027E7,1.2710451E8,0E0,1.8592256E7,0E0,0E0,0E0,0E0,0E0,0E0,0E0,0E0,0E0,0E0,1.3024896E7,2.664608E6,8.303933E6,1.0966048E7,1.9861056E7,4.027264E6,0E0,0E0,0E0,0E0,0E0,0E0,0E0,0E0,0E0,0E0,0E0,0E0,0E0,0E0],"parents":[2147483647,0,0,1,1,2,2,3,3,4,4,5,5,6,6,7,7,8,8,9,9,10,10,11,11,12,12,13,13,16,16,17,17,18,18,19,19,20,20,22,22,33,33,34,34,35,35,36,36,37,37,38,38],"right_children":[2,4,6,8,10,12,14,16,18,20,22,24,26,28,-1,-1,30,32,34,36,38,-1,40,-1,-1,-1,-1,-1,-1,-1,-1,-1,-1,42,44,46,48,50,52,-1,-1,-1,-1,-1,-1,-1,-1,-1,-1,-1,-1,-1,-1],"split_conditions":[1.9705E4,5.88E3,3.9583E4,1.32475E3,1.2706E4,2.9269E4,5.0487E4,3.9105E2,2.94878E3,8.856E3,1.6255E4,2.4085E4,3.1206E4,4.3302E4,3.3809539E3,-4.4227798E2,1.1196E3,2.05536E3,4.116E3,7.094E3,1.0733E4,5.1090396E2,1.8189E4,9.742214E2,1.2653387E3,1.5349423E3,1.877195E3,2.245777E3,2.6737195E3,-4.0660666E2,-3.638509E2,-3.333704E2,-2.8404688E2,3.62963E3,5.016E3,6.703E3,8.087E3,9.392E3,1.0868E4,6.750009E2,8.159896E2,-2.3814952E2,-1.931272E2,-1.4445401E2,-9.6197426E1,-3.5407146E1,3.6483095E0,4.0861004E1,8.995963E1,1.4924101E2,2.090426E2,2.582096E2,3.1550696E2],"split_indices":[3,2,2,3,3,2,3,3,2,2,3,2,3,3,0,0,2,3,3,3,2,0,3,0,0,0,0,0,0,0,0,0,0,2,3,2,2,3,3,0,0,0,0,0,0,0,0,0,0,0,0,0,0],"split_type":[0,0,0,0,0,0,0,0,0,0,0,0,0,0,0,0,0,0,0,0,0,0,0,0,0,0,0,0,0,0,0,0,0,0,0,0,0,0,0,0,0,0,0,0,0,0,0,0,0,0,0,0,0],"sum_hessian":[6.319E3,5.553E3,7.66E2,4.518E3,1.035E3,3.94E2,3.72E2,3.63E3,8.88E2,8.37E2,1.98E2,2.22E2,1.72E2,2.47E2,1.25E2,3.186E3,4.44E2,4.66E2,4.22E2,4.17E2,4.2E2,5E1,1.48E2,1.23E2,9.9E1,7.3E1,9.9E1,1.24E2,1.23E2,2.72E2,1.72E2,3.42E2,1.24E2,3.47E2,7.5E1,2.19E2,1.98E2,2.72E2,1.48E2,7.4E1,7.4E1,1.73E2,1.74E2,4.6E1,2.9E1,1.21E2,9.8E1,7.7E1,1.21E2,1.72E2,1E2,7.4E1,7.4E1],"tree_param":{"num_deleted":"0","num_feature":"4","num_nodes":"53","size_leaf_vector":"1"}},{"base_weights":[1.18310795E1,-2.4176711E3,1.9742318E4,-3.6066633E3,2.5527244E3,1.4623035E4,2.643922E4,-3.8886328E3,-2.1573735E3,1.1254049E3,6.8044185E3,1.1886096E4,1.8066473E3,2.381789E4,3.1342246E3,-3.9603005E3,-3.2153708E2,-2.6414556E3,-1.598717E3,3.6333698E2,2.0364423E3,5.266706E3,7.6490557E3,1.0031838E3,1.3259579E3,2.1968284E3,2.5429316E3,-4.0121692E2,-3.8017953E2,-2.8295663E2,-2.3106306E2,-1.7885767E3,-8.9818396E2,-2.3016562E1,8.410555E2,1.6452509E3,2.6082493E3,3.9303574E2,5.6597504E2,6.916052E2,8.122318E2,-1.9247414E2,-1.6105354E2,-1.0271908E2,-5.9392242E1,-1.9458353E1,2.3543287E1,6.418886E1,1.03976944E2,1.451518E2,1.8819397E2,2.4071239E2,2.958336E2],"categories":[],"categories_nodes":[],"categories_segments":[],"categories_sizes":[],"default_left":[0,0,0,0,0,0,0,0,0,0,0,0,0,0,0,0,0,0,0,0,0,0,0,0,0,0,0,0,0,0,0,0,0,0,0,0,0,0,0,0,0,0,0,0,0,0,0,0,0,0,0,0,0],"id":5,"left_children":[1,3,5,7,9,11,13,15,17,19,21,23,-1,25,-1,27,-1,29,31,33,35,37,39,-1,-1,-1,-1,-1,-1,-1,-1,41,43,45,47,49,51,-1,-1,-1,-1,-1,-1,-1,-1,-1,-1,-1,-1,-1,-1,-1,-1],"loss_changes":[3.029986E11,3.326934E10,2.3371743E10,1.8477261E9,6.588829E9,3.5079373E9,3.0963794E9,1.7067213E8,1.9644032E8,5.650922E8,3.1429018E8,4.3491533E8,0E0,3.4471936E7,0E0,1.2951552E7,0E0,1.81056E7,4.454547E7,8.2152216E7,7.869619E7,3.0279424E7,4.186112E6,0E0,0E0,0E0,0E0,0E0,0E0,0E0,0E0,3.494208E6,2.37306E6,1.0998134E7,7.208448E6,7.493888E6,3.370176E6,0E0,0E0,0E0,0E0,0E0,0E0,0E0,0E0,0E0,0E0,0E0,0E0,0E0,0E0,0E0,0E0],"parents":[2147483647,0,0,1,1,2,2,3,3,4,4,5,5,6,6,7,7,8,8,9,9,10,10,11,11,13,13,15,15,17,17,18,18,19,19,20,20,21,21,22,22,31,31,32,32,33,33,34,34,35,35,36,36],"right_children":[2,4,6,8,10,12,14,16,18,20,22,24,-1,26,-1,28,-1,30,32,34,36,38,40,-1,-1,-1,-1,-1,-1,-1,-1,42,44,46,48,50,52,-1,-1,-1,-1,-1,-1,-1,-1,-1,-1,-1,-1,-1,-1,-1,-1],"split_conditions":[2.2876E4,6.331E3,4.0694E4,1.81037E3,1.2706E4,3.3667E4,5.7357E4,9.5085E2,3.156E3,8.734E3,1.7837E4,2.7404E4,1.8066473E3,4.5944E4,3.1342246E3,1.8031E2,-3.2153708E2,2.49442E3,4.66502E3,7.355E3,1.0156E4,1.4915E4,1.9139E4,1.0031838E3,1.3259579E3,2.1968284E3,2.5429316E3,-4.0121692E2,-3.8017953E2,-2.8295663E2,-2.3106306E2,3.757E3,5.406E3,7.125E3,8.508E3,9.858E3,1.123E4,3.9303574E2,5.6597504E2,6.916052E2,8.122318E2,-1.9247414E2,-1.6105354E2,-1.0271908E2,-5.9392242E1,-1.9458353E1,2.3543287E1,6.418886E1,1.03976944E2,1.451518E2,1.8819397E2,2.4071239E2,2.958336E2],"split_indices":[2,2,3,2,3,2,2,2,3,3,2,2,0,3,0,3,0,3,2,3,3,1,3,0,0,0,0,0,0,0,0,3,3,2,2,2,3,0,0,0,0,0,0,0,0,0,0,0,0,0,0,0,0],"split_type":[0,0,0,0,0,0,0,0,0,0,0,0,0,0,0,0,0,0,0,0,0,0,0,0,0,0,0,0,0,0,0,0,0,0,0,0,0,0,0,0,0,0,0,0,0,0,0,0,0,0,0,0,0],"sum_hessian":[6.319E3,5.627E3,6.92E2,4.541E3,1.086E3,3.94E2,2.98E2,3.8E3,7.41E2,8.14E2,2.72E2,2.22E2,1.72E2,1.98E2,1E2,3.43E3,3.7E2,3.95E2,3.46E2,4.44E2,3.7E2,9.9E1,1.73E2,9.8E1,1.24E2,9.9E1,9.9E1,2.566E3,8.64E2,2.47E2,1.48E2,2.71E2,7.5E1,2.46E2,1.98E2,2.22E2,1.48E2,2.5E1,7.4E1,7.4E1,9.9E1,1.48E2,1.23E2,5.1E1,2.4E1,1.48E2,9.8E1,1.01E2,9.7E1,1.26E2,9.6E1,9.9E1,4.9E1],"tree_param":{"num_deleted":"0","num_feature":"4","num_nodes":"53","size_leaf_vector":"1"}},{"base_weights":[1.2765485E1,-2.2198894E3,1.7435541E4,-3.2464666E3,2.1727031E3,1.216245E4,2.3007037E4,-3.4849653E3,-1.858099E3,1.0141431E3,5.9713066E3,9.745241E3,1.4843169E4,2.036951E4,2.7492444E3,-3.5645205E3,-2.8637543E2,-2.2703962E3,-1.4026306E3,3.2739032E2,1.8351428E3,4.7496255E3,6.751151E2,8.4827277E2,1.092207E3,1.3105277E3,1.5969514E3,1.8871444E3,2.202342E3,-3.623933E2,-3.4488544E2,-2.4824072E2,-2.0478946E2,-1.5810869E3,-8.0888824E2,-2.0812666E1,7.5793677E2,1.4815543E3,2.3520227E3,3.542805E2,5.1046622E2,-1.6813452E2,-1.4188988E2,-9.240934E1,-5.36906E1,-1.8129066E1,2.090952E1,5.7585964E1,9.360364E1,1.2938847E2,1.6954338E2,2.1703044E2,2.6684183E2],"categories":[],"categories_nodes":[],"categories_segments":[],"categories_sizes":[],"default_left":[0,0,0,0,0,0,0,0,0,0,0,0,0,0,0,0,0,0,0,0,0,0,0,0,0,0,0,0,0,0,0,0,0,0,0,0,0,0,0,0,0,0,0,0,0,0,0,0,0,0,0,0,0],"id":6,"left_children":[1,3,5,7,9,11,13,15,17,19,21,23,25,27,-1,29,-1,31,33,35,37,39,-1,-1,-1,-1,-1,-1,-1,-1,-1,-1,-1,41,43,45,47,49,51,-1,-1,-1,-1,-1,-1,-1,-1,-1,-1,-1,-1,-1,-1],"loss_changes":[2.4588064E11,2.5272859E10,2.0814316E10,1.4974894E9,4.667712E9,2.259374E9,3.5569664E9,1.8129306E8,1.2225818E8,4.5891552E8,2.0420915E8,2.0153344E8,1.3131366E8,1.3689651E8,0E0,1.1083776E7,0E0,1.1379456E7,3.2627392E7,6.6729096E7,6.4320256E7,2.47616E7,0E0,0E0,0E0,0E0,0E0,0E0,0E0,0E0,0E0,0E0,0E0,1.598208E6,1.885216E6,9.15101E6,5.914112E6,6.757248E6,2.775488E6,0E0,0E0,0E0,0E0,0E0,0E0,0E0,0E0,0E0,0E0,0E0,0E0,0E0,0E0],"parents":[2147483647,0,0,1,1,2,2,3,3,4,4,5,5,6,6,7,7,8,8,9,9,10,10,11,11,12,12,13,13,15,15,17,17,18,18,19,19,20,20,21,21,33,33,34,34,35,35,36,36,37,37,38,38],"right_children":[2,4,6,8,10,12,14,16,18,20,22,24,26,28,-1,30,-1,32,34,36,38,40,-1,-1,-1,-1,-1,-1,-1,-1,-1,-1,-1,42,44,46,48,50,52,-1,-1,-1,-1,-1,-1,-1,-1,-1,-1,-1,-1,-1,-1],"split_conditions":[2.0834E4,6.331E3,4.0481E4,1.88824E3,1.2706E4,2.8934E4,5.4363E4,8.4921E2,3.46857E3,8.734E3,1.7837E4,2.432E4,3.266E4,4.7357E4,2.7492444E3,1.6282E2,-2.8637543E2,2.679E3,4.42332E3,7.722E3,1.0733E4,1.4225E4,6.751151E2,8.4827277E2,1.092207E3,1.3105277E3,1.5969514E3,1.8871444E3,2.202342E3,-3.623933E2,-3.4488544E2,-2.4824072E2,-2.0478946E2,4.02756E3,5.406E3,6.689E3,8.508E3,9.392E3,1.123E4,3.542805E2,5.1046622E2,-1.6813452E2,-1.4188988E2,-9.240934E1,-5.36906E1,-1.8129066E1,2.090952E1,5.7585964E1,9.360364E1,1.2938847E2,1.6954338E2,2.1703044E2,2.6684183E2],"split_indices":[3,2,2,2,3,3,2,3,2,3,2,1,3,2,0,2,0,2,3,2,2,3,0,0,0,0,0,0,0,0,0,0,0,2,3,3,2,3,3,0,0,0,0,0,0,0,0,0,0,0,0,0,0],"split_type":[0,0,0,0,0,0,0,0,0,0,0,0,0,0,0,0,0,0,0,0,0,0,0,0,0,0,0,0,0,0,0,0,0,0,0,0,0,0,0,0,0,0,0,0,0,0,0,0,0,0,0,0,0],"sum_hessian":[6.319E3,5.602E3,7.17E2,4.541E3,1.061E3,3.7E2,3.47E2,3.874E3,6.67E2,8.14E2,2.47E2,1.97E2,1.73E2,2.22E2,1.25E2,3.43E3,4.44E2,3.48E2,3.19E2,4.44E2,3.7E2,9.9E1,1.48E2,9.9E1,9.8E1,7.3E1,1E2,1.23E2,9.9E1,2.246E3,1.184E3,1.73E2,1.75E2,2.44E2,7.5E1,2.46E2,1.98E2,2.22E2,1.48E2,2.5E1,7.4E1,1.45E2,9.9E1,5.1E1,2.4E1,1.45E2,1.01E2,1E2,9.8E1,1.22E2,1E2,9.9E1,4.9E1],"tree_param":{"num_deleted":"0","num_feature":"4","num_nodes":"53","size_leaf_vector":"1"}},{"base_weights":[1.3428932E1,-1.9583542E3,1.6026679E4,-2.922315E3,2.0713315E3,1.1855559E4,2.148342E4,-3.1506755E3,-1.7485677E3,9.1430347E2,5.5178755E3,9.636311E3,1.4618878E4,1.968158E4,2.6422734E3,-3.2083374E3,-2.6089264E2,-2.1401787E3,-1.296618E3,2.957759E2,1.6537386E3,4.470206E3,6.35976E2,8.1286804E2,1.076227E3,1.312305E3,1.5594559E3,1.7862987E3,2.0989463E3,-3.2418945E2,-3.033853E2,-2.3154227E2,-1.9056398E2,-1.4491964E3,-7.334874E2,-1.8424427E1,6.91411E2,1.3738512E3,2.200177E3,3.19977E2,4.755818E2,-1.5606474E2,-1.3035884E2,-9.574523E1,-6.0492718E1,-1.580281E1,1.9469252E1,4.797373E1,8.0949715E1,1.20339355E2,1.622476E2,1.9464204E2,2.368126E2],"categories":[],"categories_nodes":[],"categories_segments":[],"categories_sizes":[],"default_left":[0,0,0,0,0,0,0,0,0,0,0,0,0,0,0,0,0,0,0,0,0,0,0,0,0,0,0,0,0,0,0,0,0,0,0,0,0,0,0,0,0,0,0,0,0,0,0,0,0,0,0,0,0],"id":7,"left_children":[1,3,5,7,9,11,13,15,17,19,21,23,25,27,-1,29,-1,31,33,35,37,39,-1,-1,-1,-1,-1,-1,-1,-1,-1,-1,-1,41,43,45,47,49,51,-1,-1,-1,-1,-1,-1,-1,-1,-1,-1,-1,-1,-1,-1],"loss_changes":[1.995832E11,2.1867792E10,1.5518499E10,1.2119163E9,4.329638E9,2.2814638E9,2.141012E9,1.1036262E8,1.2855066E8,3.722601E8,2.1236122E8,2.8936806E8,4.929536E7,1.5546778E8,0E0,1.0252288E7,0E0,1.1863936E7,2.8751744E7,5.53301E7,5.3718464E7,3.013888E7,0E0,0E0,0E0,0E0,0E0,0E0,0E0,0E0,0E0,0E0,0E0,2.379648E6,1.609084E6,7.4389915E6,4.535816E6,8.55776E6,6.75264E5,0E0,0E0,0E0,0E0,0E0,0E0,0E0,0E0,0E0,0E0,0E0,0E0,0E0,0E0],"parents":[2147483647,0,0,1,1,2,2,3,3,4,4,5,5,6,6,7,7,8,8,9,9,10,10,11,11,12,12,13,13,15,15,17,17,18,18,19,19,20,20,21,21,33,33,34,34,35,35,36,36,37,37,38,38],"right_children":[2,4,6,8,10,12,14,16,18,20,22,24,26,28,-1,30,-1,32,34,36,38,40,-1,-1,-1,-1,-1,-1,-1,-1,-1,-1,-1,42,44,46,48,50,52,-1,-1,-1,-1,-1,-1,-1,-1,-1,-1,-1,-1,-1,-1],"split_conditions":[2.2876E4,5.964E3,4.2743E4,1.70003E3,1.2706E4,3.1206E4,5.5537E4,9.5085E2,3.34656E3,8.734E3,1.9227E4,2.6587E4,3.5749E4,4.5944E4,2.6422734E3,2.369E2,-2.6089264E2,2.31524E3,4.66502E3,7.722E3,1.0339E4,1.4915E4,6.35976E2,8.1286804E2,1.076227E3,1.312305E3,1.5594559E3,1.7862987E3,2.0989463E3,-3.2418945E2,-3.033853E2,-2.3154227E2,-1.9056398E2,3.757E3,5.016E3,7.125E3,7.887E3,1.0082E4,1.1563E4,3.19977E2,4.755818E2,-1.5606474E2,-1.3035884E2,-9.574523E1,-6.0492718E1,-1.580281E1,1.9469252E1,4.797373E1,8.0949715E1,1.20339355E2,1.622476E2,1.9464204E2,2.368126E2],"split_indices":[2,3,2,3,3,3,3,2,2,3,2,3,3,3,0,2,0,3,2,2,3,1,0,0,0,0,0,0,0,0,0,0,0,3,3,2,3,2,2,0,0,0,0,0,0,0,0,0,0,0,0,0,0],"split_type":[0,0,0,0,0,0,0,0,0,0,0,0,0,0,0,0,0,0,0,0,0,0,0,0,0,0,0,0,0,0,0,0,0,0,0,0,0,0,0,0,0,0,0,0,0,0,0,0,0,0,0,0,0],"sum_hessian":[6.319E3,5.627E3,6.92E2,4.541E3,1.086E3,3.94E2,2.98E2,3.8E3,7.41E2,8.14E2,2.72E2,2.21E2,1.73E2,2.22E2,7.6E1,3.43E3,3.7E2,3.95E2,3.46E2,4.44E2,3.7E2,1.24E2,1.48E2,9.8E1,1.23E2,7.4E1,9.9E1,9.9E1,1.23E2,2.862E3,5.68E2,2.21E2,1.74E2,2.71E2,7.5E1,2.48E2,1.96E2,2.47E2,1.23E2,2.5E1,9.9E1,1.48E2,1.23E2,2.5E1,5E1,1.5E2,9.8E1,7.2E1,1.24E2,1.5E2,9.7E1,5.4E1,6.9E1],"tree_param":{"num_deleted":"0","num_feature":"4","num_nodes":"53","size_leaf_vector":"1"}},{"base_weights":[1.3955284E1,-1.867579E3,1.3638502E4,-2.6414758E3,1.5099375E3,9.120294E3,1.8386635E4,-2.8638406E3,-1.7302858E3,7.884539E2,4.540557E3,7.043414E3,1.1151112E4,1.5959121E4,2.1849873E4,-2.9104E3,-2.596017E3,-2.0600222E3,-1.2643463E3,1.2062705E2,1.3779714E3,3.3127914E2,4.930325E3,6.2093896E2,7.798664E2,9.967298E2,1.2234247E3,1.4539467E3,1.6975302E3,2.0095449E3,2.4803574E3,-2.957764E2,-2.8515845E2,-2.6664407E2,-2.3900105E2,-2.1658492E2,-1.7826945E2,-1.3700267E3,-8.361127E2,-1.5747626E2,3.9393167E2,1.0671333E3,1.8605198E3,4.425428E2,5.3331757E2,-1.4864575E2,-1.2419E2,-9.491616E1,-6.0841583E1,-3.360981E1,-5.3330283E0,2.3871403E1,5.4521004E1,8.6967995E1,1.2256201E2,1.5994951E2,2.0394725E2],"categories":[],"categories_nodes":[],"categories_segments":[],"categories_sizes":[],"default_left":[0,0,0,0,0,0,0,0,0,0,0,0,0,0,0,0,0,0,0,0,0,0,0,0,0,0,0,0,0,0,0,0,0,0,0,0,0,0,0,0,0,0,0,0,0,0,0,0,0,0,0,0,0,0,0,0,0],"id":8,"left_children":[1,3,5,7,9,11,13,15,17,19,21,23,25,27,29,31,33,35,37,39,41,-1,43,-1,-1,-1,-1,-1,-1,-1,-1,-1,-1,-1,-1,-1,-1,45,47,49,51,53,55,-1,-1,-1,-1,-1,-1,-1,-1,-1,-1,-1,-1,-1,-1],"loss_changes":[1.6203899E11,1.4521305E10,1.628681E10,9.106657E8,2.2616776E9,1.5874744E9,2.7871314E9,3.772416E7,1.3397888E8,3.2975072E8,7.889715E7,7.629619E7,1.319383E8,7.489126E7,2.840494E8,1.59744E5,1.563136E6,1.1371008E7,1.564448E7,3.0008764E7,6.476211E7,0E0,6.704384E6,0E0,0E0,0E0,0E0,0E0,0E0,0E0,0E0,0E0,0E0,0E0,0E0,0E0,0E0,2.569664E6,1.378824E6,3.6282135E6,4.542584E6,7.47728E6,4.818944E6,0E0,0E0,0E0,0E0,0E0,0E0,0E0,0E0,0E0,0E0,0E0,0E0,0E0,0E0],"parents":[2147483647,0,0,1,1,2,2,3,3,4,4,5,5,6,6,7,7,8,8,9,9,10,10,11,11,12,12,13,13,14,14,15,15,16,16,17,17,18,18,19,19,20,20,22,22,37,37,38,38,39,39,40,40,41,41,42,42],"right_children":[2,4,6,8,10,12,14,16,18,20,22,24,26,28,30,32,34,36,38,40,42,-1,44,-1,-1,-1,-1,-1,-1,-1,-1,-1,-1,-1,-1,-1,-1,46,48,50,52,54,56,-1,-1,-1,-1,-1,-1,-1,-1,-1,-1,-1,-1,-1,-1],"split_conditions":[2.0567E4,5.88E3,3.7249E4,1.45943E3,1.2706E4,2.8326E4,5.1144E4,3.149E2,2.96569E3,8.701E3,1.6255E4,2.3455E4,3.3667E4,4.3988E4,5.9909E4,1.057E2,1.191E3,2.17287E3,4.116E3,6.872E3,9.965E3,3.3127914E2,1.8189E4,6.2093896E2,7.798664E2,9.967298E2,1.2234247E3,1.4539467E3,1.6975302E3,2.0095449E3,2.4803574E3,-2.957764E2,-2.8515845E2,-2.6664407E2,-2.3900105E2,-2.1658492E2,-1.7826945E2,3.77601E3,5.316E3,6.298E3,7.557E3,9.076E3,1.0609E4,4.425428E2,5.3331757E2,-1.4864575E2,-1.2419E2,-9.491616E1,-6.0841583E1,-3.360981E1,-5.3330283E0,2.3871403E1,5.4521004E1,8.6967995E1,1.2256201E2,1.5994951E2,2.0394725E2],"split_indices":[2,2,3,2,3,2,2,3,3,2,3,2,2,2,2,2,2,3,3,3,3,0,3,0,0,0,0,0,0,0,0,0,0,0,0,0,0,2,2,3,3,3,3,0,0,0,0,0,0,0,0,0,0,0,0,0,0],"split_type":[0,0,0,0,0,0,0,0,0,0,0,0,0,0,0,0,0,0,0,0,0,0,0,0,0,0,0,0,0,0,0,0,0,0,0,0,0,0,0,0,0,0,0,0,0,0,0,0,0,0,0,0,0,0,0,0,0],"sum_hessian":[6.319E3,5.553E3,7.66E2,4.518E3,1.035E3,3.94E2,3.72E2,3.63E3,8.88E2,8.37E2,1.98E2,1.97E2,1.97E2,2.22E2,1.5E2,3.084E3,5.46E2,5.18E2,3.7E2,3.93E2,4.44E2,5E1,1.48E2,9.8E1,9.9E1,9.9E1,9.8E1,9.9E1,1.23E2,9.9E1,5.1E1,1.681E3,1.403E3,3.98E2,1.48E2,3.7E2,1.48E2,2.95E2,7.5E1,1.95E2,1.98E2,2.72E2,1.72E2,7.1E1,7.7E1,1.49E2,1.46E2,4.8E1,2.7E1,7.1E1,1.24E2,9.9E1,9.9E1,1.24E2,1.48E2,7.4E1,9.8E1],"tree_param":{"num_deleted":"0","num_feature":"4","num_nodes":"57","size_leaf_vector":"1"}},{"base_weights":[1.4343306E1,-1.5864695E3,1.3014863E4,-2.367932E3,1.6803097E3,9.624904E3,1.7449709E4,-2.545175E3,-1.3747645E3,8.0002295E2,4.6551504E3,7.586805E3,1.1614394E4,1.5651174E4,2.0820588E3,-2.5974846E3,-2.0819649E2,-1.6732484E3,-1.0244136E3,2.7019287E2,1.465857E3,3.8641425E2,5.1547864E2,6.5966205E2,8.491221E2,1.0100654E3,1.2436298E3,1.4458954E3,1.6686884E3,-2.6204794E2,-2.4141064E2,-1.8022487E2,-1.4689511E2,-1.1522369E3,-5.9887225E2,-1.6583256E1,5.8662115E2,1.1457582E3,1.9372415E3,-1.21310974E2,-9.9808395E1,-5.185026E1,-8.911419E1,-1.3104271E1,1.5585152E1,4.2189693E1,7.171133E1,1.0008325E2,1.3218785E2,1.7002373E2,2.3862247E2],"categories":[],"categories_nodes":[],"categories_segments":[],"categories_sizes":[],"default_left":[0,0,0,0,0,0,0,0,0,0,0,0,0,0,0,0,0,0,0,0,0,0,0,0,0,0,0,0,0,0,0,0,0,0,0,0,0,0,0,0,0,0,0,0,0,0,0,0,0,0,0],"id":9,"left_children":[1,3,5,7,9,11,13,15,17,19,21,23,25,27,-1,29,-1,31,33,35,37,-1,-1,-1,-1,-1,-1,-1,-1,-1,-1,-1,-1,39,41,43,45,47,49,-1,-1,-1,-1,-1,-1,-1,-1,-1,-1,-1,-1],"loss_changes":[1.3154869E11,1.4371505E10,1.0250568E10,7.960392E8,2.8428165E9,1.5135212E9,1.4868644E9,8.795136E7,7.044198E7,2.9593824E8,7.809485E7,1.2130406E8,1.2072346E8,4.44416E6,0E0,8.25344E6,0E0,7.130112E6,1.6716096E7,4.25687E7,5.391136E7,0E0,0E0,0E0,0E0,0E0,0E0,0E0,0E0,0E0,0E0,0E0,0E0,1.088224E6,1.323152E6,4.895411E6,4.490888E6,4.394464E6,1.179808E7,0E0,0E0,0E0,0E0,0E0,0E0,0E0,0E0,0E0,0E0,0E0,0E0],"parents":[2147483647,0,0,1,1,2,2,3,3,4,4,5,5,6,6,7,7,8,8,9,9,10,10,11,11,12,12,13,13,15,15,17,17,18,18,19,19,20,20,33,33,34,34,35,35,36,36,37,37,38,38],"right_children":[2,4,6,8,10,12,14,16,18,20,22,24,26,28,-1,30,-1,32,34,36,38,-1,-1,-1,-1,-1,-1,-1,-1,-1,-1,-1,-1,40,42,44,46,48,50,-1,-1,-1,-1,-1,-1,-1,-1,-1,-1,-1,-1],"split_conditions":[2.1582E4,6.331E3,4.0694E4,1.85747E3,1.4225E4,2.9539E4,5.3659E4,9.8667E2,3.26393E3,8.937E3,1.8189E4,2.6587E4,3.7236E4,4.8436E4,2.0820588E3,2.8829E2,-2.0819649E2,2.57892E3,4.42332E3,7.355E3,1.0339E4,3.8641425E2,5.1547864E2,6.5966205E2,8.491221E2,1.0100654E3,1.2436298E3,1.4458954E3,1.6686884E3,-2.6204794E2,-2.4141064E2,-1.8022487E2,-1.4689511E2,4.12433E3,1E0,6.689E3,8.074E3,1.0082E4,1.2051E4,-1.21310974E2,-9.9808395E1,-5.185026E1,-8.911419E1,-1.3104271E1,1.5585152E1,4.2189693E1,7.171133E1,1.0008325E2,1.3218785E2,1.7002373E2,2.3862247E2],"split_indices":[3,2,3,2,3,3,3,3,3,3,3,3,2,2,0,3,0,3,3,3,3,0,0,0,0,0,0,0,0,0,0,0,0,2,0,3,3,2,2,0,0,0,0,0,0,0,0,0,0,0,0],"split_type":[0,0,0,0,0,0,0,0,0,0,0,0,0,0,0,0,0,0,0,0,0,0,0,0,0,0,0,0,0,0,0,0,0,0,0,0,0,0,0,0,0,0,0,0,0,0,0,0,0,0,0],"sum_hessian":[6.319E3,5.627E3,6.92E2,4.541E3,1.086E3,3.94E2,2.98E2,3.852E3,6.89E2,8.39E2,2.47E2,1.97E2,1.97E2,1.98E2,1E2,3.457E3,3.95E2,3.7E2,3.19E2,4.68E2,3.71E2,9.9E1,1.48E2,9.8E1,9.9E1,7.4E1,1.23E2,9.9E1,9.9E1,3.06E3,3.97E2,2.22E2,1.48E2,2.44E2,7.5E1,2.46E2,2.22E2,2.23E2,1.48E2,1.7E2,7.4E1,6.1E1,1.4E1,1.48E2,9.8E1,1E2,1.22E2,1.26E2,9.7E1,1E2,4.8E1],"tree_param":{"num_deleted":"0","num_feature":"4","num_nodes":"51","size_leaf_vector":"1"}},{"base_weights":[1.4367452E1,-1.5132136E3,1.1075868E4,-2.140337E3,1.2237395E3,7.4018594E3,1.4936881E4,-2.3206194E3,-1.4015903E3,6.396496E2,3.6772249E3,5.90763E3,9.285162E3,1.2956095E4,1.7763227E4,-2.3567122E3,-2.099661E3,-1.6679083E3,-1.0252544E3,9.703349E1,1.1186409E3,2.6675542E3,3.9981375E3,5.2025464E2,6.7228564E2,8.516706E2,1.01757227E3,1.1799921E3,1.378401E3,1.6243973E3,2.0343268E3,-2.3983902E2,-2.3012987E2,-2.1558887E2,-1.9455656E2,-1.777101E2,-1.4863144E2,-1.1286049E3,-7.41628E2,-1.3084857E2,3.2099255E2,8.3580457E2,1.4672509E3,1.3189742E2,2.724362E2,3.6179456E2,4.2978256E2,-1.20882324E2,-1.0258809E2,-8.2204124E1,-4.9974865E1,-3.411938E1,-6.5903354E0,1.9934597E1,4.394292E1,6.726928E1,9.3788635E1,1.3050873E2,1.7157979E2],"categories":[],"categories_nodes":[],"categories_segments":[],"categories_sizes":[],"default_left":[0,0,0,0,0,0,0,0,0,0,0,0,0,0,0,0,0,0,0,0,0,0,0,0,0,0,0,0,0,0,0,0,0,0,0,0,0,0,0,0,0,0,0,0,0,0,0,0,0,0,0,0,0,0,0,0,0,0,0],"id":10,"left_children":[1,3,5,7,9,11,13,15,17,19,21,23,25,27,29,31,33,35,37,39,41,43,45,-1,-1,-1,-1,-1,-1,-1,-1,-1,-1,-1,-1,-1,-1,47,49,51,53,55,57,-1,-1,-1,-1,-1,-1,-1,-1,-1,-1,-1,-1,-1,-1,-1,-1],"loss_changes":[1.0680795E11,9.535545E9,1.0769637E10,5.986017E8,1.4822935E9,1.05671066E9,1.8580603E9,2.4008704E7,8.739008E7,2.1769472E8,5.3814016E7,9.320499E7,3.1730688E7,5.0806784E7,2.614231E8,1.671168E6,3.02336E5,7.649664E6,1.0038112E7,2.0150284E7,4.265043E7,3.1376E5,1.427712E6,0E0,0E0,0E0,0E0,0E0,0E0,0E0,0E0,0E0,0E0,0E0,0E0,0E0,0E0,9.848E5,1.573116E6,2.655054E6,2.779478E6,3.49848E6,5.741184E6,0E0,0E0,0E0,0E0,0E0,0E0,0E0,0E0,0E0,0E0,0E0,0E0,0E0,0E0,0E0,0E0],"parents":[2147483647,0,0,1,1,2,2,3,3,4,4,5,5,6,6,7,7,8,8,9,9,10,10,11,11,12,12,13,13,14,14,15,15,16,16,17,17,18,18,19,19,20,20,21,21,22,22,37,37,38,38,39,39,40,40,41,41,42,42],"right_children":[2,4,6,8,10,12,14,16,18,20,22,24,26,28,30,32,34,36,38,40,42,44,46,-1,-1,-1,-1,-1,-1,-1,-1,-1,-1,-1,-1,-1,-1,48,50,52,54,56,58,-1,-1,-1,-1,-1,-1,-1,-1,-1,-1,-1,-1,-1,-1,-1,-1],"split_conditions":[2.0567E4,5.88E3,3.7249E4,1.32475E3,1.2706E4,2.9269E4,5.1144E4,3.7257E2,3.16576E3,8.701E3,1.6758E4,2.2934E4,3.5496E4,4.1865E4,5.7145E4,1.1441E2,1.191E3,2.10581E3,4.217E3,7.276E3,1.0351E4,1.3242E4,1.8189E4,5.2025464E2,6.7228564E2,8.516706E2,1.01757227E3,1.1799921E3,1.378401E3,1.6243973E3,2.0343268E3,-2.3983902E2,-2.3012987E2,-2.1558887E2,-1.9455656E2,-1.777101E2,-1.4863144E2,3.59E3,5.316E3,6.184E3,7.557E3,9.32E3,1.1563E4,1.3189742E2,2.724362E2,3.6179456E2,4.2978256E2,-1.20882324E2,-1.0258809E2,-8.2204124E1,-4.9974865E1,-3.411938E1,-6.5903354E0,1.9934597E1,4.394292E1,6.726928E1,9.3788635E1,1.3050873E2,1.7157979E2],"split_indices":[2,2,3,3,3,2,2,2,2,2,2,3,2,3,3,2,2,2,2,2,2,2,3,0,0,0,0,0,0,0,0,0,0,0,0,0,0,3,2,3,3,2,2,0,0,0,0,0,0,0,0,0,0,0,0,0,0,0,0],"split_type":[0,0,0,0,0,0,0,0,0,0,0,0,0,0,0,0,0,0,0,0,0,0,0,0,0,0,0,0,0,0,0,0,0,0,0,0,0,0,0,0,0,0,0,0,0,0,0,0,0,0,0,0,0,0,0,0,0,0,0],"sum_hessian":[6.319E3,5.553E3,7.66E2,4.518E3,1.035E3,3.94E2,3.72E2,3.63E3,8.88E2,8.37E2,1.98E2,2.22E2,1.72E2,2.22E2,1.5E2,3.112E3,5.18E2,5.18E2,3.7E2,3.93E2,4.44E2,5E1,1.48E2,1.23E2,9.9E1,9.8E1,7.4E1,9.9E1,1.23E2,9.9E1,5.1E1,1.752E3,1.36E3,3.7E2,1.48E2,3.18E2,2E2,2.69E2,1.01E2,1.95E2,1.98E2,2.47E2,1.97E2,3E0,4.7E1,7.1E1,7.7E1,1.45E2,1.24E2,7.4E1,2.7E1,4.5E1,1.5E2,9.9E1,9.9E1,9.8E1,1.49E2,1.23E2,7.4E1],"tree_param":{"num_deleted":"0","num_feature":"4","num_nodes":"59","size_leaf_vector":"1"}},{"base_weights":[1.4417897E1,-1.3374109E3,1.0163121E4,-1.9187555E3,1.2101344E3,6.8191284E3,1.34619375E4,-2.0775544E3,-1.1911058E3,6.029093E2,3.4239385E3,5.43946E3,8.366729E3,1.21189795E4,1.6958627E4,-2.110459E3,-1.7742157E2,-1.4541022E3,-8.732981E2,1.9424474E2,1.0914614E3,2.636524E3,3.7973086E3,4.9146848E2,6.2415594E2,7.6436176E2,9.189072E2,1.1020775E3,1.3331088E3,1.5751615E3,1.9683339E3,-2.1537617E2,-2.048914E2,-1.5554507E2,-1.2841975E2,-9.6836743E2,-4.9028632E2,-3.7635803E1,4.294433E2,8.7524805E2,1.4077307E3,2.0870071E2,2.8695422E2,3.4466345E2,4.0973517E2,-1.0446588E2,-8.5350395E1,-4.240821E1,-7.312447E1,-1.2875684E1,7.755305E0,2.887869E1,5.332018E1,7.556692E1,1.01220795E2,1.2825688E2,1.6298997E2],"categories":[],"categories_nodes":[],"categories_segments":[],"categories_sizes":[],"default_left":[0,0,0,0,0,0,0,0,0,0,0,0,0,0,0,0,0,0,0,0,0,0,0,0,0,0,0,0,0,0,0,0,0,0,0,0,0,0,0,0,0,0,0,0,0,0,0,0,0,0,0,0,0,0,0,0,0],"id":11,"left_children":[1,3,5,7,9,11,13,15,17,19,21,23,25,27,29,31,-1,33,35,37,39,41,43,-1,-1,-1,-1,-1,-1,-1,-1,-1,-1,-1,-1,45,47,49,51,53,55,-1,-1,-1,-1,-1,-1,-1,-1,-1,-1,-1,-1,-1,-1,-1,-1],"loss_changes":[8.6719635E10,8.2633503E9,8.104403E9,5.223516E8,1.3919514E9,7.466373E8,1.5460475E9,3.3456128E7,6.693325E7,1.6250592E8,5.5549696E7,5.3088256E7,3.2636928E7,2.1648589E8,2.2120448E7,4.533248E6,0E0,5.665216E6,1.3070752E7,2.428556E7,2.4137472E7,3.614848E6,1.555456E6,0E0,0E0,0E0,0E0,0E0,0E0,0E0,0E0,0E0,0E0,0E0,0E0,1.711008E6,9.0228E5,2.371614E6,3.07136E6,2.88728E6,2.0528E6,0E0,0E0,0E0,0E0,0E0,0E0,0E0,0E0,0E0,0E0,0E0,0E0,0E0,0E0,0E0,0E0],"parents":[2147483647,0,0,1,1,2,2,3,3,4,4,5,5,6,6,7,7,8,8,9,9,10,10,11,11,12,12,13,13,14,14,15,15,17,17,18,18,19,19,20,20,21,21,22,22,35,35,36,36,37,37,38,38,39,39,40,40],"right_children":[2,4,6,8,10,12,14,16,18,20,22,24,26,28,30,32,-1,34,36,38,40,42,44,-1,-1,-1,-1,-1,-1,-1,-1,-1,-1,-1,-1,46,48,50,52,54,56,-1,-1,-1,-1,-1,-1,-1,-1,-1,-1,-1,-1,-1,-1,-1,-1],"split_conditions":[2.1179E4,5.964E3,3.9583E4,1.66364E3,1.2706E4,2.8068E4,5.7357E4,6.1605E2,3.266E3,8.734E3,1.6603E4,2.3912E4,3.266E4,4.4601E4,6.2626E4,1.345E2,-1.7742157E2,2.17287E3,4.42332E3,7.599E3,1.0733E4,1.4915E4,1.8817E4,4.9146848E2,6.2415594E2,7.6436176E2,9.189072E2,1.1020775E3,1.3331088E3,1.5751615E3,1.9683339E3,-2.1537617E2,-2.048914E2,-1.5554507E2,-1.2841975E2,3.96E3,1E0,6.86E3,8.311E3,9.392E3,1.123E4,2.0870071E2,2.8695422E2,3.4466345E2,4.0973517E2,-1.0446588E2,-8.5350395E1,-4.240821E1,-7.312447E1,-1.2875684E1,7.755305E0,2.887869E1,5.332018E1,7.556692E1,1.01220795E2,1.2825688E2,1.6298997E2],"split_indices":[2,3,2,2,3,3,2,3,2,3,3,3,3,3,2,2,0,3,3,2,2,1,3,0,0,0,0,0,0,0,0,0,0,0,0,2,0,2,2,3,3,0,0,0,0,0,0,0,0,0,0,0,0,0,0,0,0],"split_type":[0,0,0,0,0,0,0,0,0,0,0,0,0,0,0,0,0,0,0,0,0,0,0,0,0,0,0,0,0,0,0,0,0,0,0,0,0,0,0,0,0,0,0,0,0,0,0,0,0,0,0,0,0,0,0,0,0],"sum_hessian":[6.319E3,5.577E3,7.42E2,4.541E3,1.036E3,3.7E2,3.72E2,3.726E3,8.15E2,8.14E2,2.22E2,1.98E2,1.72E2,2.72E2,1E2,3.356E3,3.7E2,4.44E2,3.71E2,4.44E2,3.7E2,7.4E1,1.48E2,1.24E2,7.4E1,9.7E1,7.5E1,1.48E2,1.24E2,7.4E1,2.6E1,1.95E3,1.406E3,2.73E2,1.71E2,2.96E2,7.5E1,2.24E2,2.2E2,2.22E2,1.48E2,2.5E1,4.9E1,7.4E1,7.4E1,1.73E2,1.23E2,6.1E1,1.4E1,1.25E2,9.9E1,9.5E1,1.25E2,1.22E2,1E2,9.9E1,4.9E1],"tree_param":{"num_deleted":"0","num_feature":"4","num_nodes":"57","size_leaf_vector":"1"}},{"base_weights":[1.446118E1,-1.1569695E3,9.527877E3,-1.7271436E3,1.2265516E3,7.034017E3,1.2790576E4,-1.8804176E3,-1.1150107E3,5.432997E2,3.2618037E3,5.347032E3,8.311212E3,1.1654581E4,1.5914424E3,-1.9098282E3,-1.7003866E3,-1.3505319E3,-8.019386E2,1.7501639E2,9.8357666E2,2.5279692E3,3.6648018E3,4.821782E2,5.969069E2,7.477212E2,9.26226E2,1.0768153E3,1.2656088E3,-1.953303E2,-1.8727338E2,-1.7414091E2,-1.5614708E2,-1.4385811E2,-1.20407326E2,-8.849606E2,-4.4291287E2,-3.3924736E1,3.8317267E2,8.1284955E2,1.3170988E3,1.8820934E2,2.7181665E2,3.2624597E2,3.9299103E2,-9.686298E1,-7.829981E1,-3.8252342E1,-6.629952E1,-1.3809165E1,4.5902944E0,2.5181707E1,4.8414093E1,7.059696E1,9.614178E1,1.1942792E2,1.4866824E2],"categories":[],"categories_nodes":[],"categories_segments":[],"categories_sizes":[],"default_left":[0,0,0,0,0,0,0,0,0,0,0,0,0,0,0,0,0,0,0,0,0,0,0,0,0,0,0,0,0,0,0,0,0,0,0,0,0,0,0,0,0,0,0,0,0,0,0,0,0,0,0,0,0,0,0,0,0],"id":12,"left_children":[1,3,5,7,9,11,13,15,17,19,21,23,25,27,-1,29,31,33,35,37,39,41,43,-1,-1,-1,-1,-1,-1,-1,-1,-1,-1,-1,-1,45,47,49,51,53,55,-1,-1,-1,-1,-1,-1,-1,-1,-1,-1,-1,-1,-1,-1,-1,-1],"loss_changes":[7.044305E10,7.6506926E9,5.5487775E9,4.2405274E8,1.5097992E9,8.066294E8,8.7557734E8,1.5977472E7,6.6163456E7,1.3197741E8,7.14711E7,2.7741696E7,1.0762138E8,6.168781E7,0E0,1.362944E6,2.38592E5,4.960576E6,1.1352E7,1.936712E7,2.0054624E7,7.168512E6,5.738496E6,0E0,0E0,0E0,0E0,0E0,0E0,0E0,0E0,0E0,0E0,0E0,0E0,1.962992E6,7.56478E5,1.8606738E6,2.835678E6,3.259248E6,8.07184E5,0E0,0E0,0E0,0E0,0E0,0E0,0E0,0E0,0E0,0E0,0E0,0E0,0E0,0E0,0E0,0E0],"parents":[2147483647,0,0,1,1,2,2,3,3,4,4,5,5,6,6,7,7,8,8,9,9,10,10,11,11,12,12,13,13,15,15,16,16,17,17,18,18,19,19,20,20,21,21,22,22,35,35,36,36,37,37,38,38,39,39,40,40],"right_children":[2,4,6,8,10,12,14,16,18,20,22,24,26,28,-1,30,32,34,36,38,40,42,44,-1,-1,-1,-1,-1,-1,-1,-1,-1,-1,-1,-1,46,48,50,52,54,56,-1,-1,-1,-1,-1,-1,-1,-1,-1,-1,-1,-1,-1,-1,-1,-1],"split_conditions":[2.1582E4,6.331E3,4.2743E4,1.45943E3,1.2706E4,3.0286E4,5.5537E4,3.4751E2,2.96569E3,8.734E3,1.6952E4,2.7404E4,3.5749E4,4.7039E4,1.5914424E3,8.385E1,1.15188E3,1.94199E3,4.42332E3,7.599E3,1.0339E4,1.4225E4,1.9139E4,4.821782E2,5.969069E2,7.477212E2,9.26226E2,1.0768153E3,1.2656088E3,-1.953303E2,-1.8727338E2,-1.7414091E2,-1.5614708E2,-1.4385811E2,-1.20407326E2,3.67283E3,1E0,6.452E3,7.887E3,9.55E3,1.1785E4,1.8820934E2,2.7181665E2,3.2624597E2,3.9299103E2,-9.686298E1,-7.829981E1,-3.8252342E1,-6.629952E1,-1.3809165E1,4.5902944E0,2.5181707E1,4.8414093E1,7.059696E1,9.614178E1,1.1942792E2,1.4866824E2],"split_indices":[3,2,2,2,3,2,3,3,3,3,3,2,3,3,0,2,3,3,3,2,3,3,3,0,0,0,0,0,0,0,0,0,0,0,0,3,0,3,3,3,2,0,0,0,0,0,0,0,0,0,0,0,0,0,0,0,0],"split_type":[0,0,0,0,0,0,0,0,0,0,0,0,0,0,0,0,0,0,0,0,0,0,0,0,0,0,0,0,0,0,0,0,0,0,0,0,0,0,0,0,0,0,0,0,0,0,0,0,0,0,0,0,0,0,0,0,0],"sum_hessian":[6.319E3,5.627E3,6.92E2,4.541E3,1.086E3,3.94E2,2.98E2,3.63E3,9.11E2,8.14E2,2.72E2,1.72E2,2.22E2,2.22E2,7.6E1,3.112E3,5.18E2,5.18E2,3.93E2,4.44E2,3.7E2,9.9E1,1.73E2,9.8E1,7.4E1,1.23E2,9.9E1,1.24E2,9.8E1,1.409E3,1.703E3,3.91E2,1.27E2,3.18E2,2E2,3.18E2,7.5E1,2.22E2,2.22E2,2.47E2,1.23E2,2.5E1,7.4E1,7.4E1,9.9E1,1.7E2,1.48E2,6.1E1,1.4E1,9.6E1,1.26E2,9.8E1,1.24E2,1.47E2,1E2,7.6E1,4.7E1],"tree_param":{"num_deleted":"0","num_feature":"4","num_nodes":"57","size_leaf_vector":"1"}},{"base_weights":[1.4139861E1,-1.0413042E3,8.5856045E3,-1.5547747E3,1.1051759E3,6.1757393E3,1.1327012E4,-1.6925879E3,-1.00438586E3,4.8996533E2,2.9377454E3,4.8216836E3,7.321849E3,1.0340744E4,1.4343651E3,-1.7198407E3,-1.5357914E3,-1.2292048E3,-7.392663E2,1.7677682E2,9.1185425E2,2.2784954E3,3.299741E3,4.3505356E2,5.37931E3,6.547639E2,8.0228406E2,9.3744916E2,1.1223604E3,-1.7608374E2,-1.6885513E2,-1.5755223E2,-1.4190904E2,-1.295188E2,-1.1011714E2,-8.241791E2,-4.5099084E2,-1.0441547E1,3.8691528E2,7.536879E2,1.1902203E3,1.6989314E2,2.449031E2,2.9422668E2,3.5348492E2,1.5218779E2,5.4108716E2,-9.274411E1,-7.572216E1,-5.669131E1,-3.3304462E1,-1.0501697E1,8.574348E0,2.7515766E1,4.737209E1,6.54066E1,8.643694E1,1.07860985E2,1.3338316E2],"categories":[],"categories_nodes":[],"categories_segments":[],"categories_sizes":[],"default_left":[0,0,0,0,0,0,0,0,0,0,0,0,0,0,0,0,0,0,0,0,0,0,0,0,0,0,0,0,0,0,0,0,0,0,0,0,0,0,0,0,0,0,0,0,0,0,0,0,0,0,0,0,0,0,0,0,0,0,0],"id":13,"left_children":[1,3,5,7,9,11,13,15,17,19,21,23,25,27,-1,29,31,33,35,37,39,41,43,-1,45,-1,-1,-1,-1,-1,-1,-1,-1,-1,-1,47,49,51,53,55,57,-1,-1,-1,-1,-1,-1,-1,-1,-1,-1,-1,-1,-1,-1,-1,-1,-1,-1],"loss_changes":[5.71841E10,6.2046413E9,4.5082993E9,3.4281267E8,1.2240618E9,5.404498E8,8.126669E8,1.2875776E7,5.345005E7,1.0752539E8,5.7632E7,2.2048256E7,5.547008E7,1.0549248E8,0E0,9.84064E5,3.00416E5,2.73024E6,9.933648E6,1.8455336E7,1.4380704E7,5.722912E6,4.223488E6,0E0,8.96512E5,0E0,0E0,0E0,0E0,0E0,0E0,0E0,0E0,0E0,0E0,1.53792E6,1.151106E6,2.2740925E6,2.013616E6,1.904544E6,5.48848E5,0E0,0E0,0E0,0E0,0E0,0E0,0E0,0E0,0E0,0E0,0E0,0E0,0E0,0E0,0E0,0E0,0E0,0E0],"parents":[2147483647,0,0,1,1,2,2,3,3,4,4,5,5,6,6,7,7,8,8,9,9,10,10,11,11,12,12,13,13,15,15,16,16,17,17,18,18,19,19,20,20,21,21,22,22,24,24,35,35,36,36,37,37,38,38,39,39,40,40],"right_children":[2,4,6,8,10,12,14,16,18,20,22,24,26,28,-1,30,32,34,36,38,40,42,44,-1,46,-1,-1,-1,-1,-1,-1,-1,-1,-1,-1,48,50,52,54,56,58,-1,-1,-1,-1,-1,-1,-1,-1,-1,-1,-1,-1,-1,-1,-1,-1,-1,-1],"split_conditions":[2.2876E4,5.964E3,4.1514E4,1.32475E3,1.2706E4,2.8934E4,5.5537E4,3.495E2,3.03849E3,9.32E3,1.7837E4,2.7404E4,3.7236E4,4.5944E4,1.4343651E3,7.712E1,1.191E3,2.10581E3,4.414E3,7.722E3,1.0937E4,1.4915E4,1.9139E4,4.3505356E2,2.2934E4,6.547639E2,8.0228406E2,9.3744916E2,1.1223604E3,-1.7608374E2,-1.6885513E2,-1.5755223E2,-1.4190904E2,-1.295188E2,-1.1011714E2,3.371E3,5.016E3,6.86E3,8.508E3,9.55E3,1.123E4,1.6989314E2,2.449031E2,2.9422668E2,3.5348492E2,1.5218779E2,5.4108716E2,-9.274411E1,-7.572216E1,-5.669131E1,-3.3304462E1,-1.0501697E1,8.574348E0,2.7515766E1,4.737209E1,6.54066E1,8.643694E1,1.07860985E2,1.3338316E2],"split_indices":[2,3,2,3,3,3,3,2,2,2,2,2,2,3,0,2,2,2,2,2,2,1,3,0,3,0,0,0,0,0,0,0,0,0,0,3,3,2,2,3,3,0,0,0,0,0,0,0,0,0,0,0,0,0,0,0,0,0,0],"split_type":[0,0,0,0,0,0,0,0,0,0,0,0,0,0,0,0,0,0,0,0,0,0,0,0,0,0,0,0,0,0,0,0,0,0,0,0,0,0,0,0,0,0,0,0,0,0,0,0,0,0,0,0,0,0,0,0,0,0,0],"sum_hessian":[6.319E3,5.627E3,6.92E2,4.541E3,1.086E3,3.7E2,3.22E2,3.63E3,9.11E2,8.14E2,2.72E2,1.72E2,1.98E2,2.46E2,7.6E1,3.084E3,5.46E2,4.91E2,4.2E2,4.68E2,3.46E2,9.9E1,1.73E2,9.8E1,7.4E1,9.9E1,9.9E1,1.23E2,1.23E2,1.311E3,1.773E3,3.98E2,1.48E2,3.18E2,1.73E2,3.23E2,9.7E1,2.48E2,2.2E2,2.23E2,1.23E2,2.5E1,7.4E1,7.4E1,9.9E1,1E0,7.3E1,1.22E2,2.01E2,4.7E1,5E1,1.25E2,1.23E2,9.8E1,1.22E2,1.21E2,1.02E2,7.4E1,4.9E1],"tree_param":{"num_deleted":"0","num_feature":"4","num_nodes":"59","size_leaf_vector":"1"}},{"base_weights":[1.3748985E1,-9.3710516E2,7.7358174E3,-1.3932512E3,1.02310156E3,5.853032E3,1.0593605E4,-1.4997212E3,-7.6532104E2,4.6084988E2,2.6484421E3,4.7729233E3,7.3526523E3,9.822553E3,1.3696516E3,-1.5349199E3,-1.2234497E2,-8.910783E2,-4.604973E2,1.7866667E2,8.213994E2,2.1548296E3,3.044772E2,4.0654844E3,5.4418713E2,6.4458E2,7.6863446E2,8.882668E2,1.050131E3,-1.5682217E2,-1.4789818E2,-1.0303939E2,-7.8905054E2,-5.7507764E2,-2.6797342E2,1.1079353E1,3.484788E2,6.790802E2,1.071868E3,1.7381375E3,2.409449E2,1.13870804E2,4.0800217E2,-8.432814E1,-7.2018166E1,-5.9949493E1,-4.6696133E1,-3.5116905E1,-2.1093838E1,-4.868161E0,1.1792208E1,2.4791998E1,4.265832E1,5.4538227E1,7.495695E1,7.97841E1,1.1050773E2,3.899264E1,1.7852089E2],"categories":[],"categories_nodes":[],"categories_segments":[],"categories_sizes":[],"default_left":[0,0,0,0,0,0,0,0,0,0,0,0,0,0,0,0,0,0,0,0,0,0,0,0,0,0,0,0,0,0,0,0,0,0,0,0,0,0,0,0,0,0,0,0,0,0,0,0,0,0,0,0,0,0,0,0,0,0,0],"id":14,"left_children":[1,3,5,7,9,11,13,15,17,19,21,23,25,27,-1,29,-1,31,33,35,37,39,-1,41,-1,-1,-1,-1,-1,-1,-1,-1,43,45,47,49,51,53,55,57,-1,-1,-1,-1,-1,-1,-1,-1,-1,-1,-1,-1,-1,-1,-1,-1,-1,-1,-1],"loss_changes":[4.6412235E10,5.0336476E9,3.6667515E9,3.041157E8,9.702025E8,6.452019E8,5.210153E8,3.6076544E7,2.5043296E7,8.033038E7,4.684685E7,9.476608E7,3.109888E6,4.8982016E7,0E0,4.123136E6,0E0,5.853376E6,4.169544E6,1.2660109E7,1.1641456E7,9.074304E6,0E0,6.29888E5,0E0,0E0,0E0,0E0,0E0,0E0,0E0,0E0,4.1976E5,4.2132E4,2.81805E5,1.442371E6,1.629996E6,1.702232E6,2.46768E5,2.540464E6,0E0,0E0,0E0,0E0,0E0,0E0,0E0,0E0,0E0,0E0,0E0,0E0,0E0,0E0,0E0,0E0,0E0,0E0,0E0],"parents":[2147483647,0,0,1,1,2,2,3,3,4,4,5,5,6,6,7,7,8,8,9,9,10,10,11,11,12,12,13,13,15,15,17,17,18,18,19,19,20,20,21,21,23,23,32,32,33,33,34,34,35,35,36,36,37,37,38,38,39,39],"right_children":[2,4,6,8,10,12,14,16,18,20,22,24,26,28,-1,30,-1,32,34,36,38,40,-1,42,-1,-1,-1,-1,-1,-1,-1,-1,44,46,48,50,52,54,56,58,-1,-1,-1,-1,-1,-1,-1,-1,-1,-1,-1,-1,-1,-1,-1,-1,-1,-1,-1],"split_conditions":[2.2876E4,6.184E3,4.3988E4,1.9387E3,1.3242E4,3.266E4,5.9909E4,9.8667E2,3.8367E3,8.937E3,1.8189E4,2.8326E4,3.8728E4,4.7039E4,1.3696516E3,1.4017E2,-1.2234497E2,2.94878E3,5.189E3,7.722E3,1.0937E4,1.6255E4,3.044772E2,2.0834E4,5.4418713E2,6.4458E2,7.6863446E2,8.882668E2,1.050131E3,-1.5682217E2,-1.4789818E2,-1.0303939E2,3.371E3,4.42332E3,5.88E3,6.872E3,8.508E3,9.689E3,1.0339E4,1.0609E4,2.409449E2,1.13870804E2,4.0800217E2,-8.432814E1,-7.2018166E1,-5.9949493E1,-4.6696133E1,-3.5116905E1,-2.1093838E1,-4.868161E0,1.1792208E1,2.4791998E1,4.265832E1,5.4538227E1,7.495695E1,7.97841E1,1.1050773E2,3.899264E1,1.7852089E2],"split_indices":[2,3,2,2,2,3,2,3,3,3,3,2,2,3,0,3,0,2,1,2,2,3,0,3,0,0,0,0,0,0,0,0,3,3,2,3,2,2,3,3,0,0,0,0,0,0,0,0,0,0,0,0,0,0,0,0,0,0,0],"split_type":[0,0,0,0,0,0,0,0,0,0,0,0,0,0,0,0,0,0,0,0,0,0,0,0,0,0,0,0,0,0,0,0,0,0,0,0,0,0,0,0,0,0,0,0,0,0,0,0,0,0,0,0,0,0,0,0,0,0,0],"sum_hessian":[6.319E3,5.627E3,6.92E2,4.565E3,1.062E3,4.19E2,2.73E2,3.902E3,6.63E2,7.9E2,2.72E2,2.46E2,1.73E2,2.22E2,5.1E1,3.457E3,4.45E2,4.68E2,1.95E2,4.44E2,3.46E2,1.24E2,1.48E2,1.23E2,1.23E2,5.2E1,1.21E2,9.9E1,1.23E2,2.15E3,1.307E3,1.94E2,2.74E2,1.21E2,7.4E1,2.24E2,2.2E2,2.23E2,1.23E2,5E1,7.4E1,1E0,1.22E2,1.47E2,1.27E2,9.5E1,2.6E1,2.8E1,4.6E1,1.44E2,8E1,9.8E1,1.22E2,8E1,1.43E2,1.6E1,1.07E2,2E0,4.8E1],"tree_param":{"num_deleted":"0","num_feature":"4","num_nodes":"59","size_leaf_vector":"1"}},{"base_weights":[1.3338491E1,-8.434113E2,6.971166E3,-1.2541527E3,9.2167694E2,5.1416655E3,9.36475E3,-1.3498741E3,-6.896124E2,4.1549786E2,2.3849224E3,3.900937E3,6.081147E3,8.520526E3,1.168809E4,-1.3856307E3,-1.1279641E3,-8.023933E2,-4.1622534E2,1.6083862E2,7.408808E2,2.0101235E3,2.8126028E2,3.3909726E2,4.2478706E3,5.4679755E2,6.780669E2,7.7073956E2,9.107563E2,1.0470417E3,1.3555245E3,-1.416708E2,-1.3453084E2,-1.21575966E2,-1.06425224E2,-9.275698E1,-7.1071405E2,-5.18473E2,-2.443528E2,9.479827E0,3.1147617E2,5.915296E2,9.3537744E2,1.560685E3,2.2213484E2,1.2417832E2,4.2658737E2,-7.690071E1,-6.562582E1,-5.689923E1,-4.728159E1,-2.976915E1,-1.6337606E1,-3.981905E0,1.0729387E1,2.3558117E1,3.9919888E1,4.973371E1,6.433129E1,8.479107E1,1.0965768E2,3.6393166E1,1.602105E2],"categories":[],"categories_nodes":[],"categories_segments":[],"categories_sizes":[],"default_left":[0,0,0,0,0,0,0,0,0,0,0,0,0,0,0,0,0,0,0,0,0,0,0,0,0,0,0,0,0,0,0,0,0,0,0,0,0,0,0,0,0,0,0,0,0,0,0,0,0,0,0,0,0,0,0,0,0,0,0,0,0,0,0],"id":15,"left_children":[1,3,5,7,9,11,13,15,17,19,21,23,25,27,29,31,33,35,37,39,41,43,-1,-1,45,-1,-1,-1,-1,-1,-1,-1,-1,-1,-1,-1,47,49,51,53,55,57,59,61,-1,-1,-1,-1,-1,-1,-1,-1,-1,-1,-1,-1,-1,-1,-1,-1,-1,-1,-1],"loss_changes":[3.7680136E10,4.0814272E9,2.986541E9,2.4580915E8,7.86335E8,4.367063E8,4.8687514E8,2.940672E7,2.0139008E7,6.542448E7,3.810675E7,1.6203264E7,5.8573824E7,3.6250624E7,3.313664E7,2.300928E6,1.765888E6,4.72304E6,3.317728E6,1.014319E7,9.526464E6,1.067808E7,0E0,0E0,6.0416E4,0E0,0E0,0E0,0E0,0E0,0E0,0E0,0E0,0E0,0E0,0E0,3.68304E5,1.237E4,2.75304E5,1.0796056E6,1.390624E6,6.50704E5,1.17104E6,1.944984E6,0E0,0E0,0E0,0E0,0E0,0E0,0E0,0E0,0E0,0E0,0E0,0E0,0E0,0E0,0E0,0E0,0E0,0E0,0E0],"parents":[2147483647,0,0,1,1,2,2,3,3,4,4,5,5,6,6,7,7,8,8,9,9,10,10,11,11,12,12,13,13,14,14,15,15,16,16,17,17,18,18,19,19,20,20,21,21,24,24,36,36,37,37,38,38,39,39,40,40,41,41,42,42,43,43],"right_children":[2,4,6,8,10,12,14,16,18,20,22,24,26,28,30,32,34,36,38,40,42,44,-1,-1,46,-1,-1,-1,-1,-1,-1,-1,-1,-1,-1,-1,48,50,52,54,56,58,60,62,-1,-1,-1,-1,-1,-1,-1,-1,-1,-1,-1,-1,-1,-1,-1,-1,-1,-1,-1],"split_conditions":[2.1582E4,6.45E3,4.2743E4,1.848E3,1.3242E4,3.0286E4,5.5537E4,6.6688E2,3.8367E3,9.32E3,1.9501E4,2.4992E4,3.5749E4,4.8436E4,6.2626E4,1.1741E2,1.32896E3,2.94878E3,5.016E3,7.355E3,1.0156E4,1.6758E4,2.8126028E2,3.3909726E2,2.2934E4,5.4679755E2,6.780669E2,7.7073956E2,9.107563E2,1.0470417E3,1.3555245E3,-1.416708E2,-1.3453084E2,-1.21575966E2,-1.06425224E2,-9.275698E1,3.46857E3,4.217E3,5.964E3,7.276E3,8.204E3,9.689E3,1.1785E4,1.0609E4,2.2213484E2,1.2417832E2,4.2658737E2,-7.690071E1,-6.562582E1,-5.689923E1,-4.728159E1,-2.976915E1,-1.6337606E1,-3.981905E0,1.0729387E1,2.3558117E1,3.9919888E1,4.973371E1,6.433129E1,8.479107E1,1.0965768E2,3.6393166E1,1.602105E2],"split_indices":[3,2,2,3,2,2,3,2,3,2,2,2,3,2,2,3,2,2,3,3,3,2,0,0,3,0,0,0,0,0,0,0,0,0,0,0,2,2,3,2,3,2,2,3,0,0,0,0,0,0,0,0,0,0,0,0,0,0,0,0,0,0,0],"split_type":[0,0,0,0,0,0,0,0,0,0,0,0,0,0,0,0,0,0,0,0,0,0,0,0,0,0,0,0,0,0,0,0,0,0,0,0,0,0,0,0,0,0,0,0,0,0,0,0,0,0,0,0,0,0,0,0,0,0,0,0,0,0,0],"sum_hessian":[6.319E3,5.627E3,6.92E2,4.565E3,1.062E3,3.94E2,2.98E2,3.902E3,6.63E2,7.9E2,2.72E2,1.72E2,2.22E2,2.22E2,7.6E1,3.356E3,5.46E2,4.68E2,1.95E2,4.44E2,3.46E2,1.48E2,1.24E2,7.4E1,9.8E1,1.23E2,9.9E1,9.9E1,1.23E2,5E1,2.6E1,1.876E3,1.48E3,2.22E2,3.24E2,1.94E2,2.74E2,1.21E2,7.4E1,2.22E2,2.22E2,1.98E2,1.48E2,5E1,9.8E1,1E0,9.7E1,1.26E2,1.48E2,5.2E1,6.9E1,4.3E1,3.1E1,1.48E2,7.4E1,1.21E2,1.01E2,7.4E1,1.24E2,1E2,4.8E1,2E0,4.8E1],"tree_param":{"num_deleted":"0","num_feature":"4","num_nodes":"63","size_leaf_vector":"1"}},{"base_weights":[1.3015381E1,-8.046783E2,5.9340815E3,-1.1386782E3,6.529958E2,3.95368E3,8.0153804E3,-1.2362415E3,-7.5198676E2,3.426654E2,1.9565327E3,3.1618313E3,4.951533E3,7.186547E3,1.0176331E4,-1.2583481E3,-1.1376373E2,-9.165713E2,-5.768358E2,4.9671284E1,6.013104E2,1.4066616E3,2.1316125E2,2.7684796E2,3.6179694E2,4.5196173E2,5.4556415E2,6.5403424E2,7.899331E2,9.294152E2,1.2249927E3,-1.2943443E2,-1.2386942E2,-9.504223E1,-8.374925E1,-6.39976E2,-4.1369763E2,-7.3274666E1,1.7051418E2,4.622605E2,8.172602E2,3.396693E1,1.4432803E3,-6.990688E1,-5.8474323E1,-4.49117E1,-2.7242496E1,-1.6882711E1,-2.0031002E0,1.3506774E1,2.7072996E1,4.0078823E1,5.645996E1,7.475141E1,9.738854E1,1.4597826E2,3.25585E1],"categories":[],"categories_nodes":[],"categories_segments":[],"categories_sizes":[],"default_left":[0,0,0,0,0,0,0,0,0,0,0,0,0,0,0,0,0,0,0,0,0,0,0,0,0,0,0,0,0,0,0,0,0,0,0,0,0,0,0,0,0,0,0,0,0,0,0,0,0,0,0,0,0,0,0,0,0],"id":16,"left_children":[1,3,5,7,9,11,13,15,17,19,21,23,25,27,29,31,-1,33,35,37,39,41,-1,-1,-1,-1,-1,-1,-1,-1,-1,-1,-1,-1,-1,43,45,47,49,51,53,-1,55,-1,-1,-1,-1,-1,-1,-1,-1,-1,-1,-1,-1,-1,-1],"loss_changes":[3.0603803E10,2.7047808E9,3.1297352E9,1.6955802E8,4.1841965E8,2.9645312E8,5.949358E8,6.431232E6,2.5790432E7,6.3475016E7,1.6159552E7,2.9994752E7,1.3010176E7,7.407923E7,7.090381E7,4.74624E5,0E0,4.59488E5,4.319008E6,5.866209E6,1.2984576E7,1.502424E6,0E0,0E0,0E0,0E0,0E0,0E0,0E0,0E0,0E0,0E0,0E0,0E0,0E0,6.324E5,5.1313E5,9.937805E5,6.703395E5,1.491164E6,1.161864E6,0E0,4.28504E5,0E0,0E0,0E0,0E0,0E0,0E0,0E0,0E0,0E0,0E0,0E0,0E0,0E0,0E0],"parents":[2147483647,0,0,1,1,2,2,3,3,4,4,5,5,6,6,7,7,8,8,9,9,10,10,11,11,12,12,13,13,14,14,15,15,17,17,18,18,19,19,20,20,21,21,35,35,36,36,37,37,38,38,39,39,40,40,42,42],"right_children":[2,4,6,8,10,12,14,16,18,20,22,24,26,28,30,32,-1,34,36,38,40,42,-1,-1,-1,-1,-1,-1,-1,-1,-1,-1,-1,-1,-1,44,46,48,50,52,54,-1,56,-1,-1,-1,-1,-1,-1,-1,-1,-1,-1,-1,-1,-1,-1],"split_conditions":[2.0567E4,5.88E3,3.7249E4,1.28775E3,1.3242E4,2.8068E4,5.3659E4,2.5497E2,2.57892E3,8.204E3,1.6255E4,2.4085E4,3.266E4,4.4601E4,6.2626E4,5.615E1,-1.1376373E2,2.01849E3,4.12433E3,7.276E3,9.965E3,1.0609E4,2.1316125E2,2.7684796E2,3.6179694E2,4.5196173E2,5.4556415E2,6.5403424E2,7.899331E2,9.294152E2,1.2249927E3,-1.2943443E2,-1.2386942E2,-9.504223E1,-8.374925E1,3.26393E3,5.316E3,6.298E3,7.887E3,9.689E3,1.1785E4,3.396693E1,1.7178E4,-6.990688E1,-5.8474323E1,-4.49117E1,-2.7242496E1,-1.6882711E1,-2.0031002E0,1.3506774E1,2.7072996E1,4.0078823E1,5.645996E1,7.475141E1,9.738854E1,1.4597826E2,3.25585E1],"split_indices":[2,2,3,3,2,3,3,2,3,3,3,2,3,3,2,3,0,2,2,2,3,3,0,0,0,0,0,0,0,0,0,0,0,0,0,3,2,3,3,2,2,0,1,0,0,0,0,0,0,0,0,0,0,0,0,0,0],"split_type":[0,0,0,0,0,0,0,0,0,0,0,0,0,0,0,0,0,0,0,0,0,0,0,0,0,0,0,0,0,0,0,0,0,0,0,0,0,0,0,0,0,0,0,0,0,0,0,0,0,0,0,0,0,0,0,0,0],"sum_hessian":[6.319E3,5.553E3,7.66E2,4.518E3,1.035E3,3.94E2,3.72E2,3.606E3,9.12E2,8.37E2,1.98E2,2.22E2,1.72E2,2.72E2,1E2,2.936E3,6.7E2,4.68E2,4.44E2,3.93E2,4.44E2,5E1,1.48E2,1.23E2,9.9E1,9.8E1,7.4E1,1.48E2,1.24E2,7.4E1,2.6E1,1.014E3,1.922E3,3.2E2,1.48E2,3.18E2,1.26E2,1.95E2,1.98E2,2.72E2,1.72E2,2E0,4.8E1,1.48E2,1.7E2,9.9E1,2.7E1,6.9E1,1.26E2,1.48E2,5E1,1.73E2,9.9E1,1.23E2,4.9E1,4.7E1,1E0],"tree_param":{"num_deleted":"0","num_feature":"4","num_nodes":"57","size_leaf_vector":"1"}},{"base_weights":[1.2537269E1,-6.832874E2,5.663459E3,-1.01626495E3,7.476237E2,4.27563E3,7.7701187E3,-1.0937021E3,-5.595577E2,3.62442E2,2.0119813E3,3.3881035E3,5.2536235E3,7.1871694E3,1.01206494E3,-1.125225E3,-9.252914E2,-6.601651E2,-3.576382E2,1.3002995E2,6.394875E2,1.7184381E3,2.2870804E2,2.847995E2,3.788765E3,4.613124E2,5.6148114E2,6.601899E2,7.841034E2,-1.154473E2,-1.098944E2,-9.979392E1,-8.6543274E1,-7.6257545E1,-5.9210156E2,-4.3420044E2,-2.007661E2,7.961157E0,2.5371977E2,4.9610245E2,8.5075433E2,1.3691026E2,1.7928249E2,9.987959E1,3.8032098E2,-6.3929646E1,-5.500837E1,-4.5175304E1,-3.3815712E1,-1.8980373E1,-5.059907E1,-9.193126E0,4.484283E0,1.6152502E1,2.9718618E1,4.188807E1,5.5837482E1,7.417283E1,1.0517914E2],"categories":[],"categories_nodes":[],"categories_segments":[],"categories_sizes":[],"default_left":[0,0,0,0,0,0,0,0,0,0,0,0,0,0,0,0,0,0,0,0,0,0,0,0,0,0,0,0,0,0,0,0,0,0,0,0,0,0,0,0,0,0,0,0,0,0,0,0,0,0,0,0,0,0,0,0,0,0,0],"id":17,"left_children":[1,3,5,7,9,11,13,15,17,19,21,23,25,27,-1,29,31,33,35,37,39,41,-1,-1,43,-1,-1,-1,-1,-1,-1,-1,-1,-1,45,47,49,51,53,55,57,-1,-1,-1,-1,-1,-1,-1,-1,-1,-1,-1,-1,-1,-1,-1,-1,-1,-1],"loss_changes":[2.4854434E10,2.6822835E9,1.9928883E9,1.6086989E8,5.1695968E8,3.4675814E8,3.027067E8,1.9679232E7,1.3252784E7,5.245803E7,1.6096576E7,3.7467136E7,1.9903488E7,3.357389E7,0E0,1.254656E6,1.836832E6,2.629392E6,2.591164E6,6.716888E6,1.0846752E7,7.6768E5,0E0,0E0,1.238912E6,0E0,0E0,0E0,0E0,0E0,0E0,0E0,0E0,0E0,1.83752E5,9.842E4,1.5491E5,8.330673E5,8.37627E5,8.43276E5,2.485672E6,0E0,0E0,0E0,0E0,0E0,0E0,0E0,0E0,0E0,0E0,0E0,0E0,0E0,0E0,0E0,0E0,0E0,0E0],"parents":[2147483647,0,0,1,1,2,2,3,3,4,4,5,5,6,6,7,7,8,8,9,9,10,10,11,11,12,12,13,13,15,15,16,16,17,17,18,18,19,19,20,20,21,21,24,24,34,34,35,35,36,36,37,37,38,38,39,39,40,40],"right_children":[2,4,6,8,10,12,14,16,18,20,22,24,26,28,-1,30,32,34,36,38,40,42,-1,-1,44,-1,-1,-1,-1,-1,-1,-1,-1,-1,46,48,50,52,54,56,58,-1,-1,-1,-1,-1,-1,-1,-1,-1,-1,-1,-1,-1,-1,-1,-1,-1,-1],"split_conditions":[2.1582E4,6.184E3,4.1865E4,1.9387E3,1.4225E4,3.1206E4,5.9909E4,5.3229E2,3.96E3,8.937E3,1.8817E4,2.6895E4,3.8728E4,5.1144E4,1.01206494E3,9.228E1,1.21215E3,2.81462E3,5.189E3,7.722E3,1.0937E4,1.6758E4,2.2870804E2,2.847995E2,2.2934E4,4.613124E2,5.6148114E2,6.601899E2,7.841034E2,-1.154473E2,-1.098944E2,-9.979392E1,-8.6543274E1,-7.6257545E1,3.156E3,4.42332E3,7.254E3,6.595E3,7.887E3,9.858E3,1.2051E4,1.3691026E2,1.7928249E2,9.987959E1,3.8032098E2,-6.3929646E1,-5.500837E1,-4.5175304E1,-3.3815712E1,-1.8980373E1,-5.059907E1,-9.193126E0,4.484283E0,1.6152502E1,2.9718618E1,4.188807E1,5.5837482E1,7.417283E1,1.0517914E2],"split_indices":[3,3,3,2,3,3,2,2,2,3,3,1,2,2,0,2,3,2,1,2,2,2,0,0,3,0,0,0,0,0,0,0,0,0,3,3,1,2,3,2,2,0,0,0,0,0,0,0,0,0,0,0,0,0,0,0,0,0,0],"split_type":[0,0,0,0,0,0,0,0,0,0,0,0,0,0,0,0,0,0,0,0,0,0,0,0,0,0,0,0,0,0,0,0,0,0,0,0,0,0,0,0,0,0,0,0,0,0,0,0,0,0,0,0,0,0,0,0,0,0,0],"sum_hessian":[6.319E3,5.627E3,6.92E2,4.565E3,1.062E3,4.19E2,2.73E2,3.902E3,6.63E2,8.15E2,2.47E2,2.22E2,1.97E2,2.22E2,5.1E1,3.282E3,6.2E2,4.41E2,2.22E2,4.44E2,3.71E2,1.23E2,1.24E2,9.8E1,1.24E2,7.6E1,1.21E2,1.23E2,9.9E1,1.533E3,1.749E3,2.73E2,3.47E2,1.72E2,2.69E2,1.48E2,7.4E1,2.24E2,2.2E2,2.23E2,1.48E2,2.5E1,9.8E1,1E0,1.23E2,1.2E2,1.49E2,1.22E2,2.6E1,7.3E1,1E0,6E1,1.64E2,7.2E1,1.48E2,1.03E2,1.2E2,9.9E1,4.9E1],"tree_param":{"num_deleted":"0","num_feature":"4","num_nodes":"59","size_leaf_vector":"1"}},{"base_weights":[1.1972118E1,-6.027905E2,5.205734E3,-9.148454E2,7.0856665E2,3.9491912E3,7.0027603E3,-9.875493E2,-5.212276E2,3.2682007E2,1.8512014E3,3.2343127E3,4.842689E2,6.4742896E3,9.134417E2,-1.0148262E3,-8.503106E2,-6.2506964E2,-3.4917197E2,1.1711551E2,5.767978E2,1.5956205E3,2.1433817E2,2.766072E2,3.5858432E2,5.9485535E2,7.06146E2,-1.0586517E2,-1.0012157E2,-9.03913E1,-7.844603E1,-7.122813E1,-5.539108E2,-4.1051263E2,-1.8339484E2,7.0540524E0,2.2665178E2,4.8007025E2,8.3509607E2,1.2374583E2,1.6578511E3,-5.820265E1,-5.0694897E1,-4.426264E1,-3.4989983E1,-2.2296467E1,-1.2325526E1,-3.9490268E0,6.5750885E0,1.7338741E1,2.916154E1,3.9051224E1,5.5090443E1,7.043807E1,9.792063E1,1.6736105E2,7.66666E1],"categories":[],"categories_nodes":[],"categories_segments":[],"categories_sizes":[],"default_left":[0,0,0,0,0,0,0,0,0,0,0,0,0,0,0,0,0,0,0,0,0,0,0,0,0,0,0,0,0,0,0,0,0,0,0,0,0,0,0,0,0,0,0,0,0,0,0,0,0,0,0,0,0,0,0,0,0],"id":18,"left_children":[1,3,5,7,9,11,13,15,17,19,21,23,-1,25,-1,27,29,31,33,35,37,39,-1,-1,-1,-1,-1,-1,-1,-1,-1,-1,41,43,45,47,49,51,53,-1,55,-1,-1,-1,-1,-1,-1,-1,-1,-1,-1,-1,-1,-1,-1,-1,-1],"loss_changes":[2.0182462E10,2.3135337E9,1.4829732E9,1.3015322E8,4.73541E8,2.3727872E8,2.4952627E8,1.3560576E7,1.253848E7,4.2708376E7,1.6891712E7,2.6787328E7,0E0,2.683392E7,0E0,8.54272E5,1.567584E6,2.360896E6,2.680478E6,5.363196E6,8.893352E6,1.269536E6,0E0,0E0,0E0,0E0,0E0,0E0,0E0,0E0,0E0,0E0,3.3712E4,2.28588E5,1.509965E5,6.1183344E5,7.21073E5,1.516716E6,1.194E6,0E0,4.584E5,0E0,0E0,0E0,0E0,0E0,0E0,0E0,0E0,0E0,0E0,0E0,0E0,0E0,0E0,0E0,0E0],"parents":[2147483647,0,0,1,1,2,2,3,3,4,4,5,5,6,6,7,7,8,8,9,9,10,10,11,11,13,13,15,15,16,16,17,17,18,18,19,19,20,20,21,21,32,32,33,33,34,34,35,35,36,36,37,37,38,38,40,40],"right_children":[2,4,6,8,10,12,14,16,18,20,22,24,-1,26,-1,28,30,32,34,36,38,40,-1,-1,-1,-1,-1,-1,-1,-1,-1,-1,42,44,46,48,50,52,54,-1,56,-1,-1,-1,-1,-1,-1,-1,-1,-1,-1,-1,-1,-1,-1,-1,-1],"split_conditions":[2.3455E4,6.45E3,4.3988E4,1.7742E3,1.4225E4,3.5496E4,5.7145E4,4.4435E2,3.59E3,9.32E3,1.9139E4,2.7213E4,4.842689E2,5.1144E4,9.134417E2,5.117E1,1.29089E3,2.679E3,5.016E3,7.355E3,1.0868E4,1.6758E4,2.1433817E2,2.766072E2,3.5858432E2,5.9485535E2,7.06146E2,-1.0586517E2,-1.0012157E2,-9.03913E1,-7.844603E1,-7.122813E1,3.34656E3,4.217E3,5.964E3,6.689E3,8.701E3,9.55E3,1.2051E4,1.2374583E2,2.0172E4,-5.820265E1,-5.0694897E1,-4.426264E1,-3.4989983E1,-2.2296467E1,-1.2325526E1,-3.9490268E0,6.5750885E0,1.7338741E1,2.916154E1,3.9051224E1,5.5090443E1,7.043807E1,9.792063E1,1.6736105E2,7.66666E1],"split_indices":[2,2,2,3,3,2,3,2,3,2,3,3,0,2,0,2,2,2,3,3,3,2,0,0,0,0,0,0,0,0,0,0,2,2,3,3,2,3,2,0,1,0,0,0,0,0,0,0,0,0,0,0,0,0,0,0,0],"split_type":[0,0,0,0,0,0,0,0,0,0,0,0,0,0,0,0,0,0,0,0,0,0,0,0,0,0,0,0,0,0,0,0,0,0,0,0,0,0,0,0,0,0,0,0,0,0,0,0,0,0,0,0,0,0,0,0,0],"sum_hessian":[6.319E3,5.651E3,6.68E2,4.565E3,1.086E3,3.95E2,2.73E2,3.852E3,7.13E2,8.15E2,2.71E2,2.22E2,1.73E2,2.22E2,5.1E1,3.208E3,6.44E2,4.43E2,2.7E2,4.44E2,3.71E2,1.48E2,1.23E2,9.9E1,1.23E2,1.23E2,9.9E1,7.42E2,2.466E3,3.48E2,2.96E2,1.95E2,2.48E2,1.96E2,7.4E1,2.22E2,2.22E2,2.72E2,9.9E1,2.5E1,1.23E2,1.48E2,1E2,1.24E2,7.2E1,4.3E1,3.1E1,1.24E2,9.8E1,1.24E2,9.8E1,1.23E2,1.49E2,5.5E1,4.4E1,1.2E2,3E0],"tree_param":{"num_deleted":"0","num_feature":"4","num_nodes":"57","size_leaf_vector":"1"}},{"base_weights":[1.1338026E1,-5.424997E2,4.690381E3,-8.235073E2,6.383864E2,3.3750457E3,6.088928E3,-8.9417395E2,-4.9570364E2,2.9449292E2,1.6677201E3,2.6411367E3,3.9075955E3,5.781434E3,9.2458527E2,-9.134219E2,-7.7962024E2,-6.057756E2,-3.441936E2,1.0545539E2,5.1983484E2,1.3890984E3,1.8884003E2,2.3951082E2,2.8519502E3,3.59601E2,4.3748032E2,5.208708E2,6.527835E2,-9.41988E1,-8.956364E1,-8.140743E1,-7.1577225E1,-6.564426E1,-5.1769684E1,-3.925512E2,-1.6551697E2,-5.4282813E0,1.9436388E2,4.01436E2,6.943416E2,1.1143479E3,1.447224E2,8.1055275E1,2.8685834E2,-4.286166E1,-3.269539E1,-2.01175E1,-1.1131476E1,-3.5572643E0,4.48847E0,1.1970138E1,2.4349823E1,3.502994E1,4.6360863E1,6.0485817E1,8.6461685E1,1.1480431E2,1.3598389E1],"categories":[],"categories_nodes":[],"categories_segments":[],"categories_sizes":[],"default_left":[0,0,0,0,0,0,0,0,0,0,0,0,0,0,0,0,0,0,0,0,0,0,0,0,0,0,0,0,0,0,0,0,0,0,0,0,0,0,0,0,0,0,0,0,0,0,0,0,0,0,0,0,0,0,0,0,0,0,0],"id":19,"left_children":[1,3,5,7,9,11,13,15,17,19,21,23,25,27,-1,29,31,33,35,37,39,41,-1,-1,43,-1,-1,-1,-1,-1,-1,-1,-1,-1,-1,45,47,49,51,53,55,57,-1,-1,-1,-1,-1,-1,-1,-1,-1,-1,-1,-1,-1,-1,-1,-1,-1],"loss_changes":[1.6380386E10,1.8760741E9,1.210114E9,1.0532685E8,3.8428637E8,1.2530202E8,2.6009395E8,7.567616E6,1.3333216E7,3.4705216E7,1.410112E7,8.97344E5,1.3237504E7,9.296077E7,0E0,7.86688E5,6.20608E5,1.753152E6,2.907312E6,4.3880875E6,7.407312E6,3.67568E5,0E0,0E0,2.2144E5,0E0,0E0,0E0,0E0,0E0,0E0,0E0,0E0,0E0,0E0,4.98628E5,1.22562125E5,3.0341056E5,8.76971E5,5.4976E5,1.74732E6,7.01006E5,0E0,0E0,0E0,0E0,0E0,0E0,0E0,0E0,0E0,0E0,0E0,0E0,0E0,0E0,0E0,0E0,0E0],"parents":[2147483647,0,0,1,1,2,2,3,3,4,4,5,5,6,6,7,7,8,8,9,9,10,10,11,11,12,12,13,13,15,15,16,16,17,17,18,18,19,19,20,20,21,21,24,24,35,35,36,36,37,37,38,38,39,39,40,40,41,41],"right_children":[2,4,6,8,10,12,14,16,18,20,22,24,26,28,-1,30,32,34,36,38,40,42,-1,-1,44,-1,-1,-1,-1,-1,-1,-1,-1,-1,-1,46,48,50,52,54,56,58,-1,-1,-1,-1,-1,-1,-1,-1,-1,-1,-1,-1,-1,-1,-1,-1,-1],"split_conditions":[2.255E4,6.45E3,4.1514E4,1.69997E3,1.4915E4,2.8934E4,6.0081E4,4.1329E2,3.46857E3,8.937E3,1.9501E4,2.7404E4,3.8728E4,4.8075E4,9.2458527E2,6.357E1,1.21215E3,2.679E3,5.016E3,7.235E3,1.0339E4,1.6255E4,1.8884003E2,2.3951082E2,2.2934E4,3.59601E2,4.3748032E2,5.208708E2,6.527835E2,-9.41988E1,-8.956364E1,-8.140743E1,-7.1577225E1,-6.564426E1,-5.1769684E1,3.904E3,5.964E3,6.689E3,8.311E3,1.0082E4,1.2051E4,1.7178E4,1.447224E2,8.1055275E1,2.8685834E2,-4.286166E1,-3.269539E1,-2.01175E1,-1.1131476E1,-3.5572643E0,4.48847E0,1.1970138E1,2.4349823E1,3.502994E1,4.6360863E1,6.0485817E1,8.6461685E1,1.1480431E2,1.3598389E1],"split_indices":[3,2,2,2,1,3,3,3,2,3,2,2,2,3,0,3,3,2,3,3,3,3,0,0,3,0,0,0,0,0,0,0,0,0,0,3,3,3,2,2,2,1,0,0,0,0,0,0,0,0,0,0,0,0,0,0,0,0,0],"split_type":[0,0,0,0,0,0,0,0,0,0,0,0,0,0,0,0,0,0,0,0,0,0,0,0,0,0,0,0,0,0,0,0,0,0,0,0,0,0,0,0,0,0,0,0,0,0,0,0,0,0,0,0,0,0,0,0,0,0,0],"sum_hessian":[6.319E3,5.651E3,6.68E2,4.565E3,1.086E3,3.46E2,3.22E2,3.754E3,8.11E2,8.15E2,2.71E2,1.48E2,1.98E2,2.96E2,2.6E1,3.208E3,5.46E2,4.68E2,3.43E2,4.44E2,3.71E2,1.23E2,1.48E2,7.4E1,7.4E1,1.24E2,7.4E1,1.72E2,1.24E2,1.211E3,1.997E3,3.47E2,1.99E2,2.93E2,1.75E2,2.69E2,7.4E1,1.98E2,2.46E2,2.23E2,1.48E2,2.5E1,9.8E1,1E0,7.3E1,1.7E2,9.9E1,4.3E1,3.1E1,1.24E2,7.4E1,9.9E1,1.47E2,1.26E2,9.7E1,1E2,4.8E1,2.4E1,1E0],"tree_param":{"num_deleted":"0","num_feature":"4","num_nodes":"59","size_leaf_vector":"1"}},{"base_weights":[1.0784762E1,-4.8829086E2,4.2271743E3,-7.4131476E2,5.7499854E2,3.2001013E3,5.6961294E3,-7.965248E2,-4.013914E2,2.655244E2,1.5013069E3,2.6191074E3,3.9263171E3,5.38165E3,8.373714E2,-8.165346E2,-6.4724866E2,-4.6831042E2,-2.4740994E2,1.05511635E2,4.8257785E2,1.2931562E3,1.7393161E2,2.3195659E2,2.970861E2,3.4439734E2,4.1036774E2,4.835735E2,5.8801447E2,-8.309654E2,-7.6680984E1,-6.9766136E1,-6.2791573E1,-5.1962506E2,-4.0343285E1,-3.0469022E2,-1.5093524E2,5.9927473E0,1.9573932E2,4.127378E2,7.294301E2,1.0920156E2,1.380795E3,-8.751406E1,-8.222796E1,-5.5834267E1,-4.7734146E1,-3.1854069E1,-2.441593E1,-1.4008469E1,-4.7693798E1,-6.975261E0,3.3959255E0,1.37989E1,2.4922003E1,3.5839165E1,5.0262928E1,5.7309723E1,8.3861786E1,1.4000964E2,5.6753662E1],"categories":[],"categories_nodes":[],"categories_segments":[],"categories_sizes":[],"default_left":[0,0,0,0,0,0,0,0,0,0,0,0,0,0,0,0,0,0,0,0,0,0,0,0,0,0,0,0,0,0,0,0,0,0,0,0,0,0,0,0,0,0,0,0,0,0,0,0,0,0,0,0,0,0,0,0,0,0,0,0,0],"id":20,"left_children":[1,3,5,7,9,11,13,15,17,19,21,23,25,27,-1,29,31,33,35,37,39,41,-1,-1,-1,-1,-1,-1,-1,43,-1,-1,-1,45,-1,47,49,51,53,55,57,-1,59,-1,-1,-1,-1,-1,-1,-1,-1,-1,-1,-1,-1,-1,-1,-1,-1,-1,-1],"loss_changes":[1.3301222E10,1.521027E9,9.911091E8,8.537114E7,3.1121E8,1.5679974E8,1.8565632E8,1.1201536E7,6.47888E6,2.8289836E7,1.1226112E7,1.6605184E7,7.5264E5,3.905485E7,0E0,1.844736E6,1.9008E4,1.27184E6,1.037126E6,4.228104E6,5.66404E6,1.118688E6,0E0,0E0,0E0,0E0,0E0,0E0,0E0,3.04512E5,0E0,0E0,0E0,1.34576E5,0E0,2.4506E4,1.9848638E5,4.7899372E5,7.28478E5,1.148652E6,7.99612E5,0E0,7.75104E5,0E0,0E0,0E0,0E0,0E0,0E0,0E0,0E0,0E0,0E0,0E0,0E0,0E0,0E0,0E0,0E0,0E0,0E0],"parents":[2147483647,0,0,1,1,2,2,3,3,4,4,5,5,6,6,7,7,8,8,9,9,10,10,11,11,12,12,13,13,15,15,16,16,17,17,18,18,19,19,20,20,21,21,29,29,33,33,35,35,36,36,37,37,38,38,39,39,40,40,42,42],"right_children":[2,4,6,8,10,12,14,16,18,20,22,24,26,28,-1,30,32,34,36,38,40,42,-1,-1,-1,-1,-1,-1,-1,44,-1,-1,-1,46,-1,48,50,52,54,56,58,-1,60,-1,-1,-1,-1,-1,-1,-1,-1,-1,-1,-1,-1,-1,-1,-1,-1,-1,-1],"split_conditions":[2.3455E4,6.184E3,4.1865E4,1.8853E3,1.4225E4,3.266E4,6.2626E4,1.1196E3,3.8367E3,9.423E3,1.9139E4,2.9269E4,3.8728E4,5.1144E4,8.373714E2,2.0881E2,1.32896E3,3.05701E3,5.189E3,7.722E3,1.123E4,1.7007E4,1.7393161E2,2.3195659E2,2.970861E2,3.4439734E2,4.1036774E2,4.835735E2,5.8801447E2,3.188E1,-7.6680984E1,-6.9766136E1,-6.2791573E1,2.49442E3,-4.0343285E1,4.42332E3,7.254E3,6.595E3,8.204E3,1.0733E4,1.2051E4,1.0920156E2,2.0172E4,-8.751406E1,-8.222796E1,-5.5834267E1,-4.7734146E1,-3.1854069E1,-2.441593E1,-1.4008469E1,-4.7693798E1,-6.975261E0,3.3959255E0,1.37989E1,2.4922003E1,3.5839165E1,5.0262928E1,5.7309723E1,8.3861786E1,1.4000964E2,5.6753662E1],"split_indices":[2,3,3,3,3,3,2,2,3,2,3,2,2,2,0,2,2,3,1,2,3,2,0,0,0,0,0,0,0,2,0,0,0,3,0,3,1,2,3,2,2,0,1,0,0,0,0,0,0,0,0,0,0,0,0,0,0,0,0,0,0],"split_type":[0,0,0,0,0,0,0,0,0,0,0,0,0,0,0,0,0,0,0,0,0,0,0,0,0,0,0,0,0,0,0,0,0,0,0,0,0,0,0,0,0,0,0,0,0,0,0,0,0,0,0,0,0,0,0,0,0,0,0,0,0],"sum_hessian":[6.319E3,5.651E3,6.68E2,4.565E3,1.086E3,3.95E2,2.73E2,3.926E3,6.39E2,8.15E2,2.71E2,2.22E2,1.73E2,2.47E2,2.6E1,3.458E3,4.68E2,4.44E2,1.95E2,4.7E2,3.45E2,1.48E2,1.23E2,1.24E2,9.8E1,5.2E1,1.21E2,1.23E2,1.24E2,2.668E3,7.9E2,1.2E2,3.48E2,2.44E2,2E2,1.21E2,7.4E1,2.24E2,2.46E2,2.71E2,7.4E1,4.9E1,9.9E1,4.22E2,2.246E3,1.21E2,1.23E2,9.5E1,2.6E1,7.3E1,1E0,6E1,1.64E2,1.2E2,1.26E2,1.72E2,9.9E1,3.3E1,4.1E1,9.6E1,3E0],"tree_param":{"num_deleted":"0","num_feature":"4","num_nodes":"61","size_leaf_vector":"1"}},{"base_weights":[1.0227503E1,-4.755543E2,3.5278572E3,-6.730129E2,3.86213E2,2.4138513E3,4.8622095E3,-7.2958154E2,-4.4120892E2,2.0308511E2,1.155434E3,1.9280293E3,3.0896223E3,4.3275522E3,6.12689E3,-7.465327E2,-6.726343E2,-5.393089E2,-3.421175E2,2.8458925E1,3.572416E2,8.376696E2,1.2564445E3,1.6932812E2,2.2618618E3,2.758431E3,3.301687E2,3.930079E2,4.687225E2,5.5198846E2,7.5860944E2,-7.8546135E1,-7.382839E1,-6.8489624E1,-6.114181E1,-5.52937E1,-4.6470448E1,-3.801653E2,-2.438547E2,-4.7002224E1,1.0263946E2,2.8192444E2,5.0497284E2,1.3239551E2,8.637544E1,1.09039085E2,1.3269067E3,6.5404686E1,2.2715942E2,2.8584613E2,1.9256706E2,-4.111411E1,-3.4252502E1,-2.7590322E1,-1.9542055E1,-9.917705E0,-1.4542273E0,7.6932693E0,1.6690971E1,2.3266459E1,3.4693054E1,4.3887455E1,5.643382E1,1.8345312E1,1.5140136E0,7.67606E1,1.3482635E2],"categories":[],"categories_nodes":[],"categories_segments":[],"categories_sizes":[],"default_left":[0,0,0,0,0,0,0,0,0,0,0,0,0,0,0,0,0,0,0,0,0,0,0,0,0,0,0,0,0,0,0,0,0,0,0,0,0,0,0,0,0,0,0,0,0,0,0,0,0,0,0,0,0,0,0,0,0,0,0,0,0,0,0,0,0,0,0],"id":21,"left_children":[1,3,5,7,9,11,13,15,17,19,21,23,25,27,29,31,33,35,37,39,41,43,45,-1,47,49,-1,-1,-1,-1,-1,-1,-1,-1,-1,-1,-1,51,53,55,57,59,61,63,-1,-1,65,-1,-1,-1,-1,-1,-1,-1,-1,-1,-1,-1,-1,-1,-1,-1,-1,-1,-1,-1,-1],"loss_changes":[1.0801296E10,9.453473E8,1.1283896E9,5.893491E7,1.4570232E8,1.3193088E8,2.087936E8,3.003008E6,8.457328E6,2.2548588E7,5.334928E6,1.5526592E7,3.113216E6,1.7032704E7,4.7585536E7,3.15776E5,2.14048E5,1.9548E5,1.571012E6,2.210337E6,4.809016E6,8.23884E5,2.96528E5,0E0,6.3392E4,6.5984E5,0E0,0E0,0E0,0E0,0E0,0E0,0E0,0E0,0E0,0E0,0E0,2.31112E5,1.432175E5,3.3050175E5,3.1594325E5,8.70332E5,3.36996E5,1.5182832E4,0E0,0E0,1.59552E5,0E0,0E0,0E0,0E0,0E0,0E0,0E0,0E0,0E0,0E0,0E0,0E0,0E0,0E0,0E0,0E0,0E0,0E0,0E0,0E0],"parents":[2147483647,0,0,1,1,2,2,3,3,4,4,5,5,6,6,7,7,8,8,9,9,10,10,11,11,12,12,13,13,14,14,15,15,16,16,17,17,18,18,19,19,20,20,21,21,22,22,24,24,25,25,37,37,38,38,39,39,40,40,41,41,42,42,43,43,46,46],"right_children":[2,4,6,8,10,12,14,16,18,20,22,24,26,28,30,32,34,36,38,40,42,44,46,-1,48,50,-1,-1,-1,-1,-1,-1,-1,-1,-1,-1,-1,52,54,56,58,60,62,64,-1,-1,66,-1,-1,-1,-1,-1,-1,-1,-1,-1,-1,-1,-1,-1,-1,-1,-1,-1,-1,-1,-1],"split_conditions":[2.0567E4,5.88E3,4.0481E4,1.45943E3,1.3242E4,3.0286E4,5.7357E4,2.0977E2,2.57892E3,8.701E3,1.6758E4,2.432E4,3.266E4,4.4601E4,6.0081E4,3.708E1,1.07244E3,2.17287E3,4.12433E3,6.872E3,1.0733E4,1.0609E4,1.7837E4,1.6932812E2,2.2934E4,3.4266E4,3.301687E2,3.930079E2,4.687225E2,5.5198846E2,7.5860944E2,-7.8546135E1,-7.382839E1,-6.8489624E1,-6.114181E1,-5.52937E1,-4.6470448E1,3.371E3,4.42332E3,6.529E3,7.887E3,9.268E3,1.1563E4,1.2941E4,8.637544E1,1.09039085E2,1.6603E4,6.5404686E1,2.2715942E2,2.8584613E2,1.9256706E2,-4.111411E1,-3.4252502E1,-2.7590322E1,-1.9542055E1,-9.917705E0,-1.4542273E0,7.6932693E0,1.6690971E1,2.3266459E1,3.4693054E1,4.3887455E1,5.643382E1,1.8345312E1,1.5140136E0,7.67606E1,1.3482635E2],"split_indices":[2,2,2,2,2,2,2,3,3,2,2,1,3,3,3,2,3,3,2,3,2,3,2,0,3,1,0,0,0,0,0,0,0,0,0,0,0,3,3,2,3,3,2,1,0,0,3,0,0,0,0,0,0,0,0,0,0,0,0,0,0,0,0,0,0,0,0],"split_type":[0,0,0,0,0,0,0,0,0,0,0,0,0,0,0,0,0,0,0,0,0,0,0,0,0,0,0,0,0,0,0,0,0,0,0,0,0,0,0,0,0,0,0,0,0,0,0,0,0,0,0,0,0,0,0,0,0,0,0,0,0,0,0,0,0,0,0],"sum_hessian":[6.319E3,5.553E3,7.66E2,4.518E3,1.035E3,4.19E2,3.47E2,3.63E3,8.88E2,8.37E2,1.98E2,2.46E2,1.73E2,2.47E2,1E2,2.788E3,8.42E2,4.44E2,4.44E2,3.93E2,4.44E2,5E1,1.48E2,1.48E2,9.8E1,7.3E1,1E2,1.23E2,1.24E2,7.4E1,2.6E1,4.71E2,2.317E3,6.93E2,1.49E2,3.7E2,7.4E1,3.18E2,1.26E2,1.95E2,1.98E2,2.96E2,1.48E2,2E0,4.8E1,4.9E1,9.9E1,1E0,9.7E1,6.3E1,1E1,1.69E2,1.49E2,7.3E1,5.3E1,7.4E1,1.21E2,1.43E2,5.5E1,1.71E2,1.25E2,7.4E1,7.4E1,1E0,1E0,5E0,9.4E1],"tree_param":{"num_deleted":"0","num_feature":"4","num_nodes":"67","size_leaf_vector":"1"}},{"base_weights":[9.764024E0,-3.9567505E2,3.4350732E3,-6.007462E2,4.6610104E2,2.599595E3,4.6300156E3,-6.4755054E2,-3.377871E2,2.1572202E2,1.2155245E3,2.1303284E3,3.1860713E3,4.367754E3,6.867455E2,-6.6637384E2,-5.560192E2,-4.0168704E2,-2.2176587E2,7.6795975E1,3.8133054E2,1.0143807E3,1.3747615E3,1.828659E2,2.3564302E2,1.4239956E3,3.2086572E2,3.9149362E2,4.7820074E2,-6.790941E2,-6.425638E1,-5.91665E1,-5.1527813E1,-4.6192875E1,-3.616733E2,-2.6239255E2,-1.24555115E2,-3.7386844E0,1.425538E2,3.2641013E2,5.9446313E2,8.1251605E2,1.0571493E2,1.3789197E2,3.796758E1,1.8882812E1,1.7727754E2,-6.71142E1,-7.1109535E1,-3.8430138E1,-3.3156643E1,-2.8386976E1,-2.3025768E1,-1.1401224E1,-4.52364E1,-7.3421984E0,1.3490146E0,8.903426E0,1.7585596E1,2.7562597E1,3.9544903E1,4.6528248E1,6.84884E1,8.433528E1,2.0799317E0],"categories":[],"categories_nodes":[],"categories_segments":[],"categories_sizes":[],"default_left":[0,0,0,0,0,0,0,0,0,0,0,0,0,0,0,0,0,0,0,0,0,0,0,0,0,0,0,0,0,0,0,0,0,0,0,0,0,0,0,0,0,0,0,0,0,0,0,0,0,0,0,0,0,0,0,0,0,0,0,0,0,0,0,0,0],"id":22,"left_children":[1,3,5,7,9,11,13,15,17,19,21,23,25,27,-1,29,31,33,35,37,39,41,43,-1,-1,45,-1,-1,-1,47,-1,-1,-1,-1,49,51,53,55,57,59,61,63,-1,-1,-1,-1,-1,-1,-1,-1,-1,-1,-1,-1,-1,-1,-1,-1,-1,-1,-1,-1,-1,-1,-1],"loss_changes":[8.778286E9,9.991321E8,6.558587E8,5.5977984E7,2.0370237E8,1.0219725E8,1.3078579E8,6.305664E6,5.041232E6,1.87447E7,7.317504E6,1.0901248E7,2.355968E6,2.7799552E7,0E0,5.3568E5,6.63776E5,9.056E5,9.46756E5,2.3571575E6,4.16034E6,2.116E5,9.2992E4,0E0,0E0,1.388456E6,0E0,0E0,0E0,5.0432E4,0E0,0E0,0E0,0E0,5.788E4,5.4725E4,2.0762862E5,2.4230342E5,4.210095E5,9.35814E5,5.57384E5,6.1722E5,0E0,0E0,0E0,0E0,0E0,0E0,0E0,0E0,0E0,0E0,0E0,0E0,0E0,0E0,0E0,0E0,0E0,0E0,0E0,0E0,0E0,0E0,0E0],"parents":[2147483647,0,0,1,1,2,2,3,3,4,4,5,5,6,6,7,7,8,8,9,9,10,10,11,11,12,12,13,13,15,15,16,16,17,17,18,18,19,19,20,20,21,21,22,22,25,25,29,29,34,34,35,35,36,36,37,37,38,38,39,39,40,40,41,41],"right_children":[2,4,6,8,10,12,14,16,18,20,22,24,26,28,-1,30,32,34,36,38,40,42,44,-1,-1,46,-1,-1,-1,48,-1,-1,-1,-1,50,52,54,56,58,60,62,64,-1,-1,-1,-1,-1,-1,-1,-1,-1,-1,-1,-1,-1,-1,-1,-1,-1,-1,-1,-1,-1,-1,-1],"split_conditions":[2.255E4,6.184E3,4.1865E4,1.8029E3,1.4915E4,3.5496E4,6.2626E4,4.1329E2,3.67283E3,9.32E3,1.9501E4,2.7213E4,3.1206E4,4.8075E4,6.867455E2,1.3349E2,1.29089E3,2.679E3,5.016E3,7.599E3,1.123E4,1.6255E4,2.3417E4,1.828659E2,2.3564302E2,3.5938E4,3.2086572E2,3.9149362E2,4.7820074E2,3E0,-6.425638E1,-5.91665E1,-5.1527813E1,-4.6192875E1,3.34656E3,3.985E3,7.254E3,6.529E3,8.311E3,9.965E3,1.2051E4,1.7178E4,1.0571493E2,1.3789197E2,3.796758E1,1.8882812E1,1.7727754E2,-6.71142E1,-7.1109535E1,-3.8430138E1,-3.3156643E1,-2.8386976E1,-2.3025768E1,-1.1401224E1,-4.52364E1,-7.3421984E0,1.3490146E0,8.903426E0,1.7585596E1,2.7562597E1,3.9544903E1,4.6528248E1,6.84884E1,8.433528E1,2.0799317E0],"split_indices":[3,3,3,3,1,2,2,3,3,2,2,3,3,3,0,3,2,2,3,2,3,3,1,0,0,1,0,0,0,0,0,0,0,0,2,3,1,2,2,3,2,1,0,0,0,0,0,0,0,0,0,0,0,0,0,0,0,0,0,0,0,0,0,0,0],"split_type":[0,0,0,0,0,0,0,0,0,0,0,0,0,0,0,0,0,0,0,0,0,0,0,0,0,0,0,0,0,0,0,0,0,0,0,0,0,0,0,0,0,0,0,0,0,0,0,0,0,0,0,0,0,0,0,0,0,0,0,0,0,0,0,0,0],"sum_hessian":[6.319E3,5.651E3,6.68E2,4.565E3,1.086E3,3.95E2,2.73E2,3.874E3,6.91E2,8.15E2,2.71E2,2.22E2,1.73E2,2.47E2,2.6E1,3.208E3,6.66E2,4.44E2,2.47E2,4.44E2,3.71E2,1.23E2,1.48E2,9.9E1,1.23E2,3E0,1.7E2,1.23E2,1.24E2,2.073E3,1.135E3,3.48E2,3.18E2,1.73E2,2.71E2,1.73E2,7.4E1,2E2,2.44E2,2.97E2,7.4E1,2.5E1,9.8E1,1.47E2,1E0,1E0,2E0,1.678E3,3.95E2,1.48E2,1.23E2,9.9E1,7.4E1,7.3E1,1E0,3.9E1,1.61E2,9.5E1,1.49E2,1.74E2,1.23E2,3.3E1,4.1E1,2.4E1,1E0],"tree_param":{"num_deleted":"0","num_feature":"4","num_nodes":"65","size_leaf_vector":"1"}},{"base_weights":[9.186956E0,-3.561648E2,3.0958223E3,-5.4080023E2,4.1973367E2,2.3417468E3,4.174355E3,-5.8188245E2,-2.9850427E2,1.9443854E2,1.0940759E3,1.8014298E3,2.7528384E3,3.9342493E3,6.2251666E2,-5.993735E2,-4.9612473E2,-3.5167255E2,-1.9178284E2,6.890439E1,3.440844E2,9.1176355E2,1.238456E3,1.576544E2,1.9520798E3,2.4083633E2,3.008441E2,3.4428135E3,4.2376675E2,-6.0922485E2,-5.7271023E1,-5.3164112E1,-4.6204033E1,-4.0381924E1,-3.1695755E2,-2.302035E2,-1.12896675E2,-4.0130143E0,1.27372635E2,2.9454276E2,5.3634216E2,9.2434674E2,3.0318115E1,1.0251172E2,1.2858153E3,5.299121E1,1.9610925E2,3.4816852E2,1.02541016E2,-6.4008E1,-6.0261818E1,-3.42904E1,-2.932524E1,-1.4112744E1,-2.3559654E1,-1.386673E1,-7.3934035E0,-9.018881E0,6.1194134E-1,4.173283E1,1.1965732E1,2.3803953E1,3.5020115E1,4.2012264E1,6.176546E1,7.9548515E1,1.0009958E2,3.714619E1,1.2904555E2],"categories":[],"categories_nodes":[],"categories_segments":[],"categories_sizes":[],"default_left":[0,0,0,0,0,0,0,0,0,0,0,0,0,0,0,0,0,0,0,0,0,0,0,0,0,0,0,0,0,0,0,0,0,0,0,0,0,0,0,0,0,0,0,0,0,0,0,0,0,0,0,0,0,0,0,0,0,0,0,0,0,0,0,0,0,0,0,0,0],"id":23,"left_children":[1,3,5,7,9,11,13,15,17,19,21,23,25,27,-1,29,31,33,35,37,39,41,43,-1,45,-1,-1,47,-1,49,-1,-1,-1,-1,51,53,55,57,59,61,63,65,-1,-1,67,-1,-1,-1,-1,-1,-1,-1,-1,-1,-1,-1,-1,-1,-1,-1,-1,-1,-1,-1,-1,-1,-1,-1,-1],"loss_changes":[7.1282145E9,8.099232E8,5.343196E8,4.5276416E7,1.6493085E8,8.300006E7,1.1042918E8,5.557248E6,3.700224E6,1.5305394E7,6.030496E6,2.817472E6,1.2389504E7,2.238976E7,0E0,5.01248E5,5.61792E5,6.72144E5,6.49892E5,1.8977032E6,3.38524E6,6.69336E5,1.87312E5,0E0,2.42528E5,0E0,0E0,5.826688E6,0E0,9.2928E4,0E0,0E0,0E0,0E0,6.551E4,3.83295E4,6.505475E4,1.7431272E5,5.0262725E5,8.53812E5,4.49266E5,3.98848E5,0E0,0E0,2.1296E4,0E0,0E0,0E0,0E0,0E0,0E0,0E0,0E0,0E0,0E0,0E0,0E0,0E0,0E0,0E0,0E0,0E0,0E0,0E0,0E0,0E0,0E0,0E0,0E0],"parents":[2147483647,0,0,1,1,2,2,3,3,4,4,5,5,6,6,7,7,8,8,9,9,10,10,11,11,12,12,13,13,15,15,16,16,17,17,18,18,19,19,20,20,21,21,22,22,24,24,27,27,29,29,34,34,35,35,36,36,37,37,38,38,39,39,40,40,41,41,44,44],"right_children":[2,4,6,8,10,12,14,16,18,20,22,24,26,28,-1,30,32,34,36,38,40,42,44,-1,46,-1,-1,48,-1,50,-1,-1,-1,-1,52,54,56,58,60,62,64,66,-1,-1,68,-1,-1,-1,-1,-1,-1,-1,-1,-1,-1,-1,-1,-1,-1,-1,-1,-1,-1,-1,-1,-1,-1,-1,-1],"split_conditions":[2.3455E4,6.45E3,4.3988E4,1.9387E3,1.4225E4,2.9539E4,6.0081E4,4.4201E2,3.96E3,8.937E3,1.8817E4,2.6895E4,3.5749E4,4.7039E4,6.2251666E2,1.7462E2,1.21215E3,2.57892E3,5.189E3,7.599E3,1.123E4,2.0172E4,2.0044E4,1.576544E2,2.2934E4,2.4083633E2,3.008441E2,5.4363E4,4.2376675E2,2.437E1,-5.7271023E1,-5.3164112E1,-4.6204033E1,-4.0381924E1,3.34656E3,3.878E3,5.964E3,6.184E3,7.254E3,1.0351E4,1.2051E4,1.7007E4,3.0318115E1,1.0251172E2,1.9196E4,5.299121E1,1.9610925E2,3.4816852E2,1.02541016E2,-6.4008E1,-6.0261818E1,-3.42904E1,-2.932524E1,-1.4112744E1,-2.3559654E1,-1.386673E1,-7.3934035E0,-9.018881E0,6.1194134E-1,4.173283E1,1.1965732E1,2.3803953E1,3.5020115E1,4.2012264E1,6.176546E1,7.9548515E1,1.0009958E2,3.714619E1,1.2904555E2],"split_indices":[2,2,2,2,3,3,3,3,2,3,3,1,3,3,0,2,3,3,1,2,3,1,2,0,3,0,0,2,0,2,0,0,0,0,2,1,3,3,1,2,2,2,0,0,1,0,0,0,0,0,0,0,0,0,0,0,0,0,0,0,0,0,0,0,0,0,0,0,0],"split_type":[0,0,0,0,0,0,0,0,0,0,0,0,0,0,0,0,0,0,0,0,0,0,0,0,0,0,0,0,0,0,0,0,0,0,0,0,0,0,0,0,0,0,0,0,0,0,0,0,0,0,0,0,0,0,0,0,0,0,0,0,0,0,0,0,0,0,0,0,0],"sum_hessian":[6.319E3,5.651E3,6.68E2,4.565E3,1.086E3,3.95E2,2.73E2,3.902E3,6.63E2,8.15E2,2.71E2,1.73E2,2.22E2,2.47E2,2.6E1,3.236E3,6.66E2,4.41E2,2.22E2,4.44E2,3.71E2,1.23E2,1.48E2,7.4E1,9.9E1,9.9E1,1.23E2,9.9E1,1.48E2,2.347E3,8.89E2,3.19E2,3.47E2,1.72E2,2.69E2,1.48E2,7.4E1,1.98E2,2.46E2,2.97E2,7.4E1,1.2E2,3E0,3.1E1,1.17E2,1E0,9.8E1,9.7E1,2E0,3.97E2,1.95E3,1.22E2,1.47E2,1E1,1.38E2,4.3E1,3.1E1,2E1,1.78E2,5E0,2.41E2,1.5E2,1.47E2,3.3E1,4.1E1,4.9E1,7.1E1,1E0,1.16E2],"tree_param":{"num_deleted":"0","num_feature":"4","num_nodes":"69","size_leaf_vector":"1"}},{"base_weights":[8.693649E0,-3.205054E2,2.7898958E3,-4.8681744E2,3.783919E2,1.9999541E3,3.6298955E3,-5.285425E2,-2.9326532E2,1.6278505E2,9.5134357E2,1.5639537E3,2.3163567E3,3.2700564E3,4.737043E3,-5.4189026E2,-4.6899426E2,-3.543521E2,-1.9968701E2,6.189772E1,2.9169595E2,7.08554E2,1.0691598E3,1.4190538E2,1.688001E2,2.1323274E2,2.5921875E2,2.959651E3,3.5540903E2,4.1681735E2,5.6361285E2,-5.703523E1,-5.351485E1,-4.8727276E1,-4.28121E1,-3.9067757E1,-3.0873999E1,-2.2834187E2,-1.0189043E2,-1.3850744E1,1.0967276E2,2.3746753E2,3.8730457E2,7.606543E1,7.206858E2,9.344937E2,1.1419888E3,1.5671036E2,3.0049924E2,-2.4710148E1,-1.8238775E1,-1.3869357E1,-7.701422E0,3.6744136E-1,-2.2982763E1,6.4355617E0,1.4695444E1,-1.2411036E1,2.4128405E1,5.5721172E1,3.6583385E1,1.3699756E1,-2.2899415E0,6.267103E1,7.917658E1,5.529629E1,9.538464E1,6.990669E1,1.1625134E2],"categories":[],"categories_nodes":[],"categories_segments":[],"categories_sizes":[],"default_left":[0,0,0,0,0,0,0,0,0,0,0,0,0,0,0,0,0,0,0,0,0,0,0,0,0,0,0,0,0,0,0,0,0,0,0,0,0,0,0,0,0,0,0,0,0,0,0,0,0,0,0,0,0,0,0,0,0,0,0,0,0,0,0,0,0,0,0,0,0],"id":24,"left_children":[1,3,5,7,9,11,13,15,17,19,21,23,25,27,29,31,33,35,37,39,41,43,45,-1,-1,-1,-1,47,-1,-1,-1,-1,-1,-1,-1,-1,-1,49,51,53,55,57,59,61,63,65,67,-1,-1,-1,-1,-1,-1,-1,-1,-1,-1,-1,-1,-1,-1,-1,-1,-1,-1,-1,-1,-1,-1],"loss_changes":[5.7872906E9,6.5714477E8,4.3665613E8,3.671987E7,1.341247E8,4.424653E7,1.1319117E8,2.730368E6,4.570952E6,1.0269274E7,7.738016E6,2.82816E5,4.57408E6,1.1257856E7,1.5890304E7,2.82176E5,3.10624E5,6.91256E5,8.81891E5,1.6119232E6,1.707118E6,7.12496E5,8.7472E5,0E0,0E0,0E0,0E0,3.120256E6,0E0,0E0,0E0,0E0,0E0,0E0,0E0,0E0,0E0,1.6959E5,5.7982875E4,6.5565444E5,4.5177575E5,3.39059E5,2.4851E5,2.122758E4,1.58412E5,2.6336E4,3.14592E5,0E0,0E0,0E0,0E0,0E0,0E0,0E0,0E0,0E0,0E0,0E0,0E0,0E0,0E0,0E0,0E0,0E0,0E0,0E0,0E0,0E0,0E0],"parents":[2147483647,0,0,1,1,2,2,3,3,4,4,5,5,6,6,7,7,8,8,9,9,10,10,11,11,12,12,13,13,14,14,15,15,16,16,17,17,18,18,19,19,20,20,21,21,22,22,27,27,37,37,38,38,39,39,40,40,41,41,42,42,43,43,44,44,45,45,46,46],"right_children":[2,4,6,8,10,12,14,16,18,20,22,24,26,28,30,32,34,36,38,40,42,44,46,-1,-1,-1,-1,48,-1,-1,-1,-1,-1,-1,-1,-1,-1,50,52,54,56,58,60,62,64,66,68,-1,-1,-1,-1,-1,-1,-1,-1,-1,-1,-1,-1,-1,-1,-1,-1,-1,-1,-1,-1,-1,-1],"split_conditions":[2.3455E4,6.45E3,4.1514E4,1.69997E3,1.3242E4,3.0286E4,5.5537E4,3.1777E2,3.371E3,9.32E3,1.7837E4,2.7404E4,3.8728E4,4.8436E4,6.2626E4,4.178E1,1.2702E3,2.31524E3,5.189E3,7.094E3,1.0937E4,1.0609E4,2.0044E4,1.4190538E2,1.688001E2,2.1323274E2,2.5921875E2,3.7249E4,3.5540903E2,4.1681735E2,5.6361285E2,-5.703523E1,-5.351485E1,-4.8727276E1,-4.28121E1,-3.9067757E1,-3.0873999E1,3.985E3,5.88E3,7.254E3,8.311E3,8.074E3,1.0707E4,1.2941E4,1.6255E4,1.6603E4,1.9139E4,1.5671036E2,3.0049924E2,-2.4710148E1,-1.8238775E1,-1.3869357E1,-7.701422E0,3.6744136E-1,-2.2982763E1,6.4355617E0,1.4695444E1,-1.2411036E1,2.4128405E1,5.5721172E1,3.6583385E1,1.3699756E1,-2.2899415E0,6.267103E1,7.917658E1,5.529629E1,9.538464E1,6.990669E1,1.1625134E2],"split_indices":[2,2,2,2,2,2,3,2,3,2,2,2,2,2,2,3,2,3,1,3,2,3,2,0,0,0,0,3,0,0,0,0,0,0,0,0,0,3,2,1,2,3,1,1,3,3,3,0,0,0,0,0,0,0,0,0,0,0,0,0,0,0,0,0,0,0,0,0,0],"split_type":[0,0,0,0,0,0,0,0,0,0,0,0,0,0,0,0,0,0,0,0,0,0,0,0,0,0,0,0,0,0,0,0,0,0,0,0,0,0,0,0,0,0,0,0,0,0,0,0,0,0,0,0,0,0,0,0,0,0,0,0,0,0,0,0,0,0,0,0,0],"sum_hessian":[6.319E3,5.651E3,6.68E2,4.565E3,1.086E3,3.46E2,3.22E2,3.754E3,8.11E2,7.9E2,2.96E2,1.48E2,1.98E2,2.46E2,7.6E1,3.06E3,6.94E2,4.89E2,3.22E2,4.44E2,3.46E2,9.9E1,1.97E2,7.4E1,7.4E1,1.24E2,7.4E1,1.23E2,1.23E2,5E1,2.6E1,5.7E2,2.49E3,4.72E2,2.22E2,2.68E2,2.21E2,2.48E2,7.4E1,1.72E2,2.72E2,2.23E2,1.23E2,2E0,9.7E1,7.4E1,1.23E2,5E0,1.18E2,1.73E2,7.5E1,2.8E1,4.6E1,1.6E2,1.2E1,1.24E2,1.48E2,2E0,2.21E2,1.1E1,1.12E2,1E0,1E0,4.6E1,5.1E1,5E0,6.9E1,7E0,1.16E2],"tree_param":{"num_deleted":"0","num_feature":"4","num_nodes":"69","size_leaf_vector":"1"}},{"base_weights":[8.272385E0,-2.8845227E2,2.5151177E3,-4.3824042E2,3.4100592E2,1.9887141E3,3.5450486E3,-4.72962E2,-2.5025644E2,1.5796402E2,8.888779E2,1.5563312E3,2.4121792E3,3.315621E3,5.104716E2,-4.8697043E2,-4.112244E2,-2.965321E2,-1.6210725E2,7.2808395E1,3.0574188E2,7.430508E2,1.0042718E3,1.4097797E3,1.826729E2,2.162175E3,2.5943423E2,3.0703494E2,3.680199E2,-5.0338284E1,-4.7637856E1,-4.355702E1,-3.7968178E1,-3.3983467E1,-2.6423862E2,-1.9068304E2,-9.365001E1,1.767646E1,1.4590874E2,2.5951492E2,4.3972986E2,5.854913E2,7.769245E1,1.0082073E2,2.1091211E1,1.2354463E3,1.4853477E3,5.3661066E2,2.1898743E2,-2.8491892E1,-2.4498678E1,-2.076528E1,-1.643598E1,-8.344968E0,-4.2423733E1,-1.7830204E0,5.4029045E0,8.628849E0,1.5768863E1,2.7376684E1,5.7129455E0,2.7681349E1,4.7921883E1,4.7943844E1,7.3254234E1,1.2609208E2,4.0754753E1,5.9100002E1,1.497695E2,-4.764746E0,8.525635E1],"categories":[],"categories_nodes":[],"categories_segments":[],"categories_sizes":[],"default_left":[0,0,0,0,0,0,0,0,0,0,0,0,0,0,0,0,0,0,0,0,0,0,0,0,0,0,0,0,0,0,0,0,0,0,0,0,0,0,0,0,0,0,0,0,0,0,0,0,0,0,0,0,0,0,0,0,0,0,0,0,0,0,0,0,0,0,0,0,0,0,0],"id":25,"left_children":[1,3,5,7,9,11,13,15,17,19,21,23,25,27,-1,29,31,33,35,37,39,41,43,45,-1,47,-1,-1,-1,-1,-1,-1,-1,-1,49,51,53,55,57,59,61,63,-1,-1,-1,65,67,69,-1,-1,-1,-1,-1,-1,-1,-1,-1,-1,-1,-1,-1,-1,-1,-1,-1,-1,-1,-1,-1,-1,-1],"loss_changes":[4.701812E9,5.330504E8,3.556549E8,2.9684352E7,1.0886779E8,7.772493E7,6.358656E7,3.131968E6,2.864448E6,1.0246378E7,3.83088E6,6.261568E6,4.546304E6,6.495232E6,0E0,3.05216E5,3.86752E5,5.63256E5,4.67285E5,2.0890755E6,1.731654E6,2.0692E5,2.5256E5,1.27872E5,0E0,3.32752E6,0E0,0E0,0E0,0E0,0E0,0E0,0E0,0E0,3.849E4,4.3596E4,2.1750506E5,3.8431875E5,1.43011E5,6.3046E5,3.49851E5,5.4266E4,0E0,0E0,0E0,5.61712E5,2.08112E5,5.9441644E5,0E0,0E0,0E0,0E0,0E0,0E0,0E0,0E0,0E0,0E0,0E0,0E0,0E0,0E0,0E0,0E0,0E0,0E0,0E0,0E0,0E0,0E0,0E0],"parents":[2147483647,0,0,1,1,2,2,3,3,4,4,5,5,6,6,7,7,8,8,9,9,10,10,11,11,12,12,13,13,15,15,16,16,17,17,18,18,19,19,20,20,21,21,22,22,23,23,25,25,34,34,35,35,36,36,37,37,38,38,39,39,40,40,41,41,45,45,46,46,47,47],"right_children":[2,4,6,8,10,12,14,16,18,20,22,24,26,28,-1,30,32,34,36,38,40,42,44,46,-1,48,-1,-1,-1,-1,-1,-1,-1,-1,50,52,54,56,58,60,62,64,-1,-1,-1,66,68,70,-1,-1,-1,-1,-1,-1,-1,-1,-1,-1,-1,-1,-1,-1,-1,-1,-1,-1,-1,-1,-1,-1,-1],"split_conditions":[2.255E4,6.184E3,4.4601E4,1.7742E3,1.4915E4,3.5496E4,6.0081E4,3.8784E2,3.67283E3,9.689E3,1.9501E4,2.8934E4,4.0481E4,5.3659E4,5.104716E2,6.895E1,1.2702E3,2.49442E3,5.016E3,7.887E3,1.123E4,1.6758E4,2.3417E4,2.4992E4,1.826729E2,3.1206E4,2.5943423E2,3.0703494E2,3.680199E2,-5.0338284E1,-4.7637856E1,-4.355702E1,-3.7968178E1,-3.3983467E1,3.266E3,4.217E3,7.254E3,7.276E3,8.508E3,1.1513E4,1.1785E4,1.6507E4,7.769245E1,1.0082073E2,2.1091211E1,2.3912E4,2.432E4,3.5938E4,2.1898743E2,-2.8491892E1,-2.4498678E1,-2.076528E1,-1.643598E1,-8.344968E0,-4.2423733E1,-1.7830204E0,5.4029045E0,8.628849E0,1.5768863E1,2.7376684E1,5.7129455E0,2.7681349E1,4.7921883E1,4.7943844E1,7.3254234E1,1.2609208E2,4.0754753E1,5.9100002E1,1.497695E2,-4.764746E0,8.525635E1],"split_indices":[3,3,3,3,1,2,3,2,3,2,2,3,2,3,0,2,2,3,3,3,3,2,1,2,0,3,0,0,0,0,0,0,0,0,2,2,1,2,2,1,2,1,0,0,0,3,1,1,0,0,0,0,0,0,0,0,0,0,0,0,0,0,0,0,0,0,0,0,0,0,0],"split_type":[0,0,0,0,0,0,0,0,0,0,0,0,0,0,0,0,0,0,0,0,0,0,0,0,0,0,0,0,0,0,0,0,0,0,0,0,0,0,0,0,0,0,0,0,0,0,0,0,0,0,0,0,0,0,0,0,0,0,0,0,0,0,0,0,0,0,0,0,0,0,0],"sum_hessian":[6.319E3,5.651E3,6.68E2,4.565E3,1.086E3,4.44E2,2.24E2,3.852E3,7.13E2,8.15E2,2.71E2,2.22E2,2.22E2,1.98E2,2.6E1,3.134E3,7.18E2,4.66E2,2.47E2,5.18E2,2.97E2,1.23E2,1.48E2,1.48E2,7.4E1,9.9E1,1.23E2,1.24E2,7.4E1,1.211E3,1.923E3,3.98E2,3.2E2,1.95E2,2.71E2,1.73E2,7.4E1,2.96E2,2.22E2,2.23E2,7.4E1,2.5E1,9.8E1,1.47E2,1E0,5E1,9.8E1,2E0,9.7E1,1.24E2,1.47E2,1.01E2,7.2E1,7.3E1,1E0,1.5E2,1.46E2,3.8E1,1.84E2,2.08E2,1.5E1,1.6E1,5.8E1,1.7E1,8E0,4.8E1,2E0,2E0,9.6E1,1E0,1E0],"tree_param":{"num_deleted":"0","num_feature":"4","num_nodes":"71","size_leaf_vector":"1"}},{"base_weights":[7.825826E0,-2.5960934E2,2.2672214E3,-3.9266202E2,3.1515207E2,1.7926144E3,3.1958125E3,-4.2317902E2,-2.0433745E2,1.3761472E2,7.7257965E2,1.4037224E3,2.1734675E3,2.9861245E3,4.622928E2,-4.3575687E2,-3.5126178E2,-2.4351404E2,-1.1525702E2,5.534041E1,2.3703796E2,5.760149E2,8.679529E2,1.2718206E3,1.6470511E2,1.8062814E3,2.26915E3,2.764439E2,3.3157858E2,-4.447337E2,-4.129788E1,-3.7598698E1,-3.321443E1,-2.7320755E2,-2.1245612E2,-1.540505E2,-7.4907455E1,2.1200247E1,1.175211E2,1.8967311E2,3.1964053E2,6.845345E1,5.856748E2,7.586869E2,9.2704156E2,1.1565153E2,1.3701685E3,1.8760248E3,7.894367E2,2.2918145E3,1.4042762E3,-4.3966373E1,-4.6921665E1,-2.925445E1,-2.5525404E1,-6.1875734E0,-2.1423632E1,-3.8869874E0,-1.5970349E1,-6.744682E0,-4.030254E1,2.6130939E0,-1.69899E1,7.7880836E0,1.3039001E1,1.9486166E1,-1.4311572E1,2.6535187E1,3.5719315E1,1.2729102E1,-2.4610841E0,5.1572388E1,6.425133E1,4.4213833E1,7.749813E1,5.4968117E1,9.449206E1,3.4413086E1,1.3793834E2,5.097806E1,1.9254184E2,-7.219271E0,1.3879205E2,2.0221692E2,2.4027762E2,7.2166565E1,2.0738684E2],"categories":[],"categories_nodes":[],"categories_segments":[],"categories_sizes":[],"default_left":[0,0,0,0,0,0,0,0,0,0,0,0,0,0,0,0,0,0,0,0,0,0,0,0,0,0,0,0,0,0,0,0,0,0,0,0,0,0,0,0,0,0,0,0,0,0,0,0,0,0,0,0,0,0,0,0,0,0,0,0,0,0,0,0,0,0,0,0,0,0,0,0,0,0,0,0,0,0,0,0,0,0,0,0,0,0,0],"id":26,"left_children":[1,3,5,7,9,11,13,15,17,19,21,23,25,27,-1,29,31,33,35,37,39,41,43,45,-1,47,49,-1,-1,51,-1,-1,-1,53,55,57,59,61,63,65,67,69,71,73,75,-1,77,79,81,83,85,-1,-1,-1,-1,-1,-1,-1,-1,-1,-1,-1,-1,-1,-1,-1,-1,-1,-1,-1,-1,-1,-1,-1,-1,-1,-1,-1,-1,-1,-1,-1,-1,-1,-1,-1,-1],"loss_changes":[3.819397E9,4.323522E8,2.8911E8,2.62928E7,8.622043E7,6.285837E7,5.352653E7,3.419072E6,2.212428E6,6.260926E6,5.067904E6,5.062528E6,3.735936E6,5.376896E6,0E0,5.02784E5,1.55416E5,3.52342E5,2.9838975E5,8.912319E5,1.296996E6,4.50206E5,5.75024E5,1.0504E5,0E0,2.135824E6,1.728E5,0E0,0E0,9.0976E4,0E0,0E0,0E0,3.092E3,4.6254E4,5.890375E4,2.1516638E5,2.6167422E5,6.5854125E4,4.129395E5,1.60054E5,1.955977E4,5.828E4,4.4196E4,3.17192E5,0E0,2.34416E5,2.190208E6,2.6785545E6,1.3792E5,1.702856E6,0E0,0E0,0E0,0E0,0E0,0E0,0E0,0E0,0E0,0E0,0E0,0E0,0E0,0E0,0E0,0E0,0E0,0E0,0E0,0E0,0E0,0E0,0E0,0E0,0E0,0E0,0E0,0E0,0E0,0E0,0E0,0E0,0E0,0E0,0E0,0E0],"parents":[2147483647,0,0,1,1,2,2,3,3,4,4,5,5,6,6,7,7,8,8,9,9,10,10,11,11,12,12,13,13,15,15,16,16,17,17,18,18,19,19,20,20,21,21,22,22,23,23,25,25,26,26,29,29,33,33,34,34,35,35,36,36,37,37,38,38,39,39,40,40,41,41,42,42,43,43,44,44,46,46,47,47,48,48,49,49,50,50],"right_children":[2,4,6,8,10,12,14,16,18,20,22,24,26,28,-1,30,32,34,36,38,40,42,44,46,-1,48,50,-1,-1,52,-1,-1,-1,54,56,58,60,62,64,66,68,70,72,74,76,-1,78,80,82,84,86,-1,-1,-1,-1,-1,-1,-1,-1,-1,-1,-1,-1,-1,-1,-1,-1,-1,-1,-1,-1,-1,-1,-1,-1,-1,-1,-1,-1,-1,-1,-1,-1,-1,-1,-1,-1],"split_conditions":[2.3455E4,6.298E3,4.4601E4,1.94199E3,1.3242E4,3.5496E4,6.2626E4,6.6688E2,4.12433E3,8.937E3,1.7837E4,3.0286E4,3.5749E4,5.7357E4,4.622928E2,1.7853E2,1.36666E3,3.266E3,5.189E3,7.887E3,1.0339E4,1.0609E4,2.0044E4,2.7404E4,1.6470511E2,3.9452E4,4.7232E4,2.764439E2,3.3157858E2,3E0,-4.129788E1,-3.7598698E1,-3.321443E1,2.679E3,3.07053E3,3.878E3,7.254E3,8.501E3,8.508E3,1.1275E4,1.1563E4,1.2941E4,1.6758E4,1.6603E4,1.9139E4,1.1565153E2,2.2934E4,3.1206E4,4.0647E4,4.0481E4,4.828E4,-4.3966373E1,-4.6921665E1,-2.925445E1,-2.5525404E1,-6.1875734E0,-2.1423632E1,-3.8869874E0,-1.5970349E1,-6.744682E0,-4.030254E1,2.6130939E0,-1.69899E1,7.7880836E0,1.3039001E1,1.9486166E1,-1.4311572E1,2.6535187E1,3.5719315E1,1.2729102E1,-2.4610841E0,5.1572388E1,6.425133E1,4.4213833E1,7.749813E1,5.4968117E1,9.449206E1,3.4413086E1,1.3793834E2,5.097806E1,1.9254184E2,-7.219271E0,1.3879205E2,2.0221692E2,2.4027762E2,7.2166565E1,2.0738684E2],"split_indices":[2,3,3,3,2,2,2,2,2,3,2,2,3,2,0,2,2,2,1,3,3,3,2,2,0,1,1,0,0,0,0,0,0,2,1,1,1,1,2,1,2,1,2,3,3,0,3,3,1,2,1,0,0,0,0,0,0,0,0,0,0,0,0,0,0,0,0,0,0,0,0,0,0,0,0,0,0,0,0,0,0,0,0,0,0,0,0],"split_type":[0,0,0,0,0,0,0,0,0,0,0,0,0,0,0,0,0,0,0,0,0,0,0,0,0,0,0,0,0,0,0,0,0,0,0,0,0,0,0,0,0,0,0,0,0,0,0,0,0,0,0,0,0,0,0,0,0,0,0,0,0,0,0,0,0,0,0,0,0,0,0,0,0,0,0,0,0,0,0,0,0,0,0,0,0,0,0],"sum_hessian":[6.319E3,5.651E3,6.68E2,4.589E3,1.062E3,4.44E2,2.24E2,3.948E3,6.41E2,7.66E2,2.96E2,2.22E2,2.22E2,1.98E2,2.6E1,3.356E3,5.92E2,4.44E2,1.97E2,4.2E2,3.46E2,9.9E1,1.97E2,1.48E2,7.4E1,5E1,1.72E2,1.24E2,7.4E1,2.394E3,9.62E2,2.5E2,3.42E2,2.23E2,2.21E2,9.9E1,9.8E1,2.72E2,1.48E2,2.22E2,1.24E2,2E0,9.7E1,7.4E1,1.23E2,7.4E1,7.4E1,4.6E1,4E0,1.66E2,6E0,1.999E3,3.95E2,1E2,1.23E2,3E0,2.18E2,5E0,9.4E1,9.7E1,1E0,2.66E2,6E0,3.8E1,1.1E2,2.19E2,3E0,5.4E1,7E1,1E0,1E0,4.8E1,4.9E1,5E0,6.9E1,7E0,1.16E2,1E0,7.3E1,2E0,4.4E1,2E0,2E0,5.4E1,1.12E2,4E0,2E0],"tree_param":{"num_deleted":"0","num_feature":"4","num_nodes":"87","size_leaf_vector":"1"}},{"base_weights":[7.476564E0,-2.3364804E2,2.0445898E3,-3.5169928E2,2.9205893E2,1.6501855E3,2.9612173E3,-3.8029474E2,-1.7442078E2,1.3907526E2,7.218142E2,1.3379719E3,2.0723277E2,2.7539377E3,4.1873438E2,-3.9222055E2,-3.148979E2,-2.1571722E2,-9.6211296E1,7.6935455E1,2.6778748E2,6.231063E2,8.346018E2,1.1461992E3,1.555861E2,1.8307067E3,2.7932007E2,-4.001532E2,-3.713058E1,-3.4115433E1,-2.9931686E2,-2.3837805E1,-1.891057E2,-1.2437447E2,-4.2945034E1,2.4582632E1,1.23828705E2,2.2780168E2,3.5751718E2,5.2532513E1,6.6576587E2,8.3906946E2,1.42540045E1,1.0426196E2,1.2344961E3,2.0007835E2,1.5000781E1,-3.956047E1,-4.224135E1,-8.141108E0,-2.9966246E1,-1.8250666E1,-2.5744688E1,-1.2002337E1,-2.9176939E1,-1.6285194E0,-5.4282327E0,1.2793828E0,9.528674E0,1.2727453E1,-2.2872005E1,2.4663443E1,2.5236511E0,2.7407276E1,4.1655514E1,6.7891136E1,4.29729E1,5.015835E1,8.55111E1,3.2692383E1,1.2423427E2],"categories":[],"categories_nodes":[],"categories_segments":[],"categories_sizes":[],"default_left":[0,0,0,0,0,0,0,0,0,0,0,0,0,0,0,0,0,0,0,0,0,0,0,0,0,0,0,0,0,0,0,0,0,0,0,0,0,0,0,0,0,0,0,0,0,0,0,0,0,0,0,0,0,0,0,0,0,0,0,0,0,0,0,0,0,0,0,0,0,0,0],"id":27,"left_children":[1,3,5,7,9,11,13,15,17,19,21,23,-1,25,-1,27,29,31,33,35,37,39,41,43,-1,45,-1,47,-1,-1,49,-1,51,53,55,57,59,61,63,-1,65,67,-1,-1,69,-1,-1,-1,-1,-1,-1,-1,-1,-1,-1,-1,-1,-1,-1,-1,-1,-1,-1,-1,-1,-1,-1,-1,-1,-1,-1],"loss_changes":[3.1048502E9,3.5086784E8,2.3697152E8,2.3333824E7,6.807775E7,5.917248E7,3.929843E7,2.975808E6,2.05599E6,6.105985E6,2.508144E6,9.624032E6,0E0,1.193856E6,0E0,4.08416E5,1.50708E5,2.08198E5,3.3069162E5,1.2686425E6,8.11946E5,2.7178E5,2.63792E5,7.56E4,0E0,2.558344E6,0E0,7.7984E4,0E0,0E0,5.428E3,0E0,4.2309E4,7.132025E4,2.2993766E4,2.0382611E5,3.60756E5,6.61375E5,2.55313E5,0E0,1.8532E4,2.36984E5,0E0,0E0,1.27952E5,0E0,0E0,0E0,0E0,0E0,0E0,0E0,0E0,0E0,0E0,0E0,0E0,0E0,0E0,0E0,0E0,0E0,0E0,0E0,0E0,0E0,0E0,0E0,0E0,0E0,0E0],"parents":[2147483647,0,0,1,1,2,2,3,3,4,4,5,5,6,6,7,7,8,8,9,9,10,10,11,11,13,13,15,15,16,16,17,17,18,18,19,19,20,20,21,21,22,22,23,23,25,25,27,27,30,30,32,32,33,33,34,34,35,35,36,36,37,37,38,38,40,40,41,41,44,44],"right_children":[2,4,6,8,10,12,14,16,18,20,22,24,-1,26,-1,28,30,32,34,36,38,40,42,44,-1,46,-1,48,-1,-1,50,-1,52,54,56,58,60,62,64,-1,66,68,-1,-1,70,-1,-1,-1,-1,-1,-1,-1,-1,-1,-1,-1,-1,-1,-1,-1,-1,-1,-1,-1,-1,-1,-1,-1,-1,-1,-1],"split_conditions":[2.255E4,6.595E3,4.8436E4,2.19468E3,1.4915E4,3.8728E4,6.0081E4,6.6688E2,3.904E3,9.55E3,2.0044E4,2.8934E4,2.0723277E2,4.5944E4,4.1873438E2,1.8104E2,1.32896E3,3.156E3,5.964E3,8.311E3,1.123E4,1.7007E4,2.3417E4,2.6895E4,1.555861E2,5.4363E4,2.7932007E2,3E0,-3.713058E1,-3.4115433E1,9.8667E2,-2.3837805E1,4.02635E3,6.319E3,6.319E3,7.745E3,1.0707E4,1.1513E4,1.2051E4,5.2532513E1,1.9139E4,1.9139E4,1.42540045E1,1.0426196E2,2.2934E4,2.0007835E2,1.5000781E1,-3.956047E1,-4.224135E1,-8.141108E0,-2.9966246E1,-1.8250666E1,-2.5744688E1,-1.2002337E1,-2.9176939E1,-1.6285194E0,-5.4282327E0,1.2793828E0,9.528674E0,1.2727453E1,-2.2872005E1,2.4663443E1,2.5236511E0,2.7407276E1,4.1655514E1,6.7891136E1,4.29729E1,5.015835E1,8.55111E1,3.2692383E1,1.2423427E2],"split_indices":[3,2,2,2,1,2,3,2,3,3,2,3,0,3,0,2,2,3,3,2,3,2,1,1,0,2,0,0,0,0,3,0,1,1,1,3,1,1,2,0,3,3,0,0,3,0,0,0,0,0,0,0,0,0,0,0,0,0,0,0,0,0,0,0,0,0,0,0,0,0,0],"split_type":[0,0,0,0,0,0,0,0,0,0,0,0,0,0,0,0,0,0,0,0,0,0,0,0,0,0,0,0,0,0,0,0,0,0,0,0,0,0,0,0,0,0,0,0,0,0,0,0,0,0,0,0,0,0,0,0,0,0,0,0,0,0,0,0,0,0,0,0,0,0,0],"sum_hessian":[6.319E3,5.651E3,6.68E2,4.615E3,1.036E3,4.69E2,1.99E2,3.973E3,6.42E2,7.65E2,2.71E2,2.72E2,1.97E2,1.73E2,2.6E1,3.356E3,6.17E2,4.19E2,2.23E2,5.17E2,2.48E2,1.48E2,1.23E2,1.48E2,1.24E2,9E0,1.64E2,2.42E3,9.36E2,2.22E2,3.95E2,2.22E2,1.97E2,1.45E2,7.8E1,2.45E2,2.72E2,1.74E2,7.4E1,4.9E1,9.9E1,1.22E2,1E0,7.4E1,7.4E1,8E0,1E0,2.025E3,3.95E2,1E0,3.94E2,1.83E2,1.4E1,1.43E2,2E0,2.4E1,5.4E1,2.11E2,3.4E1,2.7E2,2E0,1.59E2,1.5E1,3.3E1,4.1E1,9.2E1,7E0,7E0,1.15E2,1E0,7.3E1],"tree_param":{"num_deleted":"0","num_feature":"4","num_nodes":"71","size_leaf_vector":"1"}},{"base_weights":[6.988382E0,-2.1029347E2,1.8426686E3,-3.1973975E2,2.4963484E2,1.3164072E3,2.402328E3,-3.470614E2,-1.9300023E2,1.07466415E2,6.2743146E2,1.0686241E3,1.5566249E3,2.2034172E3,3.396586E3,-3.5775287E2,-3.135825E2,-2.2754259E2,-1.23203316E2,4.031283E1,1.9327586E2,4.673297E2,7.051221E2,9.418929E1,1.1529863E3,1.4337675E2,1.6996796E3,2.0255482E3,2.4890962E3,1.1798047E2,3.461661E2,-3.7773945E1,-3.533606E1,-3.2345444E1,-2.8159718E1,-2.5363115E1,-1.958254E2,-1.4720131E2,-8.0694725E1,-1.1345116E1,7.2900795E1,1.5328627E2,2.6395645E2,6.334831E1,4.749278E2,6.197814E2,7.510529E2,3.1057814E1,1.1583584E2,2.2911316E2,1.5948625E2,9.135091E2,2.0532071E2,1.2211445E3,2.5292073E2,-1.9694448E1,-7.8044677E0,-1.4829135E1,1.9597901E0,-6.228554E0,-1.8086107E1,-6.3930874E0,-4.053312E-1,2.2014648E1,6.4091578E0,-1.3393099E1,1.564771E1,4.3727345E1,2.4321524E1,1.1966455E1,-2.464209E0,4.1528484E1,5.1970264E1,3.4871826E1,6.3416138E1,4.576951E1,7.646923E1,1.662506E2,4.312086E1,1.8022252E2,2.3301563E1],"categories":[],"categories_nodes":[],"categories_segments":[],"categories_sizes":[],"default_left":[0,0,0,0,0,0,0,0,0,0,0,0,0,0,0,0,0,0,0,0,0,0,0,0,0,0,0,0,0,0,0,0,0,0,0,0,0,0,0,0,0,0,0,0,0,0,0,0,0,0,0,0,0,0,0,0,0,0,0,0,0,0,0,0,0,0,0,0,0,0,0,0,0,0,0,0,0,0,0,0,0],"id":28,"left_children":[1,3,5,7,9,11,13,15,17,19,21,23,25,27,29,31,33,35,37,39,41,43,45,-1,47,-1,49,51,53,-1,-1,-1,-1,-1,-1,-1,55,57,59,61,63,65,67,69,71,73,75,-1,-1,-1,-1,77,-1,79,-1,-1,-1,-1,-1,-1,-1,-1,-1,-1,-1,-1,-1,-1,-1,-1,-1,-1,-1,-1,-1,-1,-1,-1,-1,-1,-1],"loss_changes":[2.5211822E9,2.8458707E8,1.9387622E8,1.574384E7,5.8316144E7,1.8990656E7,5.6395136E7,1.231872E6,1.92966E6,4.550276E6,3.36468E6,7.74304E5,6.21184E5,8.779392E6,3.417344E6,1.15776E5,1.98464E5,3.98812E5,2.6457475E5,7.499522E5,9.40331E5,2.76862E5,3.10624E5,0E0,9.2784E4,0E0,9.95536E5,3.44544E6,1.99744E6,0E0,0E0,0E0,0E0,0E0,0E0,0E0,1.7449E4,3.4179E4,1.7313306E5,6.607686E4,3.4000375E5,2.26245E5,3.39404E5,1.7814648E4,4.5884E4,7.1194E4,1.4616E5,0E0,0E0,0E0,0E0,1.4505625E6,0E0,2.4509675E6,0E0,0E0,0E0,0E0,0E0,0E0,0E0,0E0,0E0,0E0,0E0,0E0,0E0,0E0,0E0,0E0,0E0,0E0,0E0,0E0,0E0,0E0,0E0,0E0,0E0,0E0,0E0],"parents":[2147483647,0,0,1,1,2,2,3,3,4,4,5,5,6,6,7,7,8,8,9,9,10,10,11,11,12,12,13,13,14,14,15,15,16,16,17,17,18,18,19,19,20,20,21,21,22,22,24,24,26,26,27,27,28,28,36,36,37,37,38,38,39,39,40,40,41,41,42,42,43,43,44,44,45,45,46,46,51,51,53,53],"right_children":[2,4,6,8,10,12,14,16,18,20,22,24,26,28,30,32,34,36,38,40,42,44,46,-1,48,-1,50,52,54,-1,-1,-1,-1,-1,-1,-1,56,58,60,62,64,66,68,70,72,74,76,-1,-1,-1,-1,78,-1,80,-1,-1,-1,-1,-1,-1,-1,-1,-1,-1,-1,-1,-1,-1,-1,-1,-1,-1,-1,-1,-1,-1,-1,-1,-1,-1,-1],"split_conditions":[2.3455E4,6.45E3,4.1514E4,1.69997E3,1.3242E4,3.0941E4,5.9909E4,2.177E2,3.59E3,9.32E3,1.7837E4,2.6895E4,3.8728E4,5.1144E4,5.5537E4,3.83E1,1.18625E3,2.49442E3,4.42332E3,7.43E3,1.0937E4,1.0609E4,2.0044E4,9.418929E1,2.2934E4,1.4337675E2,3.7284E4,3.7249E4,4.7039E4,1.1798047E2,3.461661E2,-3.7773945E1,-3.533606E1,-3.2345444E1,-2.8159718E1,-2.5363115E1,4.12433E3,5.189E3,1E0,6.184E3,7.254E3,8.074E3,1.0707E4,1.2941E4,1.6255E4,1.6603E4,1.9139E4,3.1057814E1,1.1583584E2,2.2911316E2,1.5948625E2,3.9452E4,2.0532071E2,5.4363E4,2.5292073E2,